{
  "b2": [
    0.5271036028862, 
    -1.002711296081543, 
    -0.4131118059158325, 
    -0.7267282605171204, 
    0.6160845756530762, 
    -0.8801454305648804, 
    -0.010341509245336056, 
    -1.497119426727295, 
    2.2017641067504883, 
    1.1852573156356812
  ], 
  "b1": [
    -1.3539776802062988, 
    -0.4462084472179413, 
    -1.0575178861618042, 
    -0.7571830749511719, 
    0.5804538726806641, 
    -0.10331640392541885, 
    -2.131629467010498, 
    -0.9816694855690002, 
    0.3563399612903595, 
    -1.1681158542633057, 
    -2.880831241607666, 
    -0.8663250803947449, 
    -1.3423500061035156, 
    -1.017430067062378, 
    0.6720205545425415, 
    -1.1449904441833496, 
    -2.9417598247528076, 
    -1.366529941558838, 
    -2.003807306289673, 
    0.17194557189941406, 
    -1.0172077417373657, 
    -0.9320839643478394, 
    -1.851585865020752, 
    -1.3897736072540283, 
    0.24843242764472961
  ], 
  "W1": [
    [
      0.0, 
      0.0, 
      0.0, 
      0.0, 
      0.0, 
      0.0, 
      0.0, 
      0.0, 
      0.0, 
      0.0, 
      0.0, 
      0.0, 
      0.0, 
      0.0, 
      0.0, 
      0.0, 
      0.0, 
      0.0, 
      0.0, 
      0.0, 
      0.0, 
      0.0, 
      0.0, 
      0.0, 
      0.0
    ], 
    [
      0.0, 
      0.0, 
      0.0, 
      0.0, 
      0.0, 
      0.0, 
      0.0, 
      0.0, 
      0.0, 
      0.0, 
      0.0, 
      0.0, 
      0.0, 
      0.0, 
      0.0, 
      0.0, 
      0.0, 
      0.0, 
      0.0, 
      0.0, 
      0.0, 
      0.0, 
      0.0, 
      0.0, 
      0.0
    ], 
    [
      0.0, 
      0.0, 
      0.0, 
      0.0, 
      0.0, 
      0.0, 
      0.0, 
      0.0, 
      0.0, 
      0.0, 
      0.0, 
      0.0, 
      0.0, 
      0.0, 
      0.0, 
      0.0, 
      0.0, 
      0.0, 
      0.0, 
      0.0, 
      0.0, 
      0.0, 
      0.0, 
      0.0, 
      0.0
    ], 
    [
      0.0, 
      0.0, 
      0.0, 
      0.0, 
      0.0, 
      0.0, 
      0.0, 
      0.0, 
      0.0, 
      0.0, 
      0.0, 
      0.0, 
      0.0, 
      0.0, 
      0.0, 
      0.0, 
      0.0, 
      0.0, 
      0.0, 
      0.0, 
      0.0, 
      0.0, 
      0.0, 
      0.0, 
      0.0
    ], 
    [
      0.0, 
      0.0, 
      0.0, 
      0.0, 
      0.0, 
      0.0, 
      0.0, 
      0.0, 
      0.0, 
      0.0, 
      0.0, 
      0.0, 
      0.0, 
      0.0, 
      0.0, 
      0.0, 
      0.0, 
      0.0, 
      0.0, 
      0.0, 
      0.0, 
      0.0, 
      0.0, 
      0.0, 
      0.0
    ], 
    [
      0.0, 
      0.0, 
      0.0, 
      0.0, 
      0.0, 
      0.0, 
      0.0, 
      0.0, 
      0.0, 
      0.0, 
      0.0, 
      0.0, 
      0.0, 
      0.0, 
      0.0, 
      0.0, 
      0.0, 
      0.0, 
      0.0, 
      0.0, 
      0.0, 
      0.0, 
      0.0, 
      0.0, 
      0.0
    ], 
    [
      0.0, 
      0.0, 
      0.0, 
      0.0, 
      0.0, 
      0.0, 
      0.0, 
      0.0, 
      0.0, 
      0.0, 
      0.0, 
      0.0, 
      0.0, 
      0.0, 
      0.0, 
      0.0, 
      0.0, 
      0.0, 
      0.0, 
      0.0, 
      0.0, 
      0.0, 
      0.0, 
      0.0, 
      0.0
    ], 
    [
      0.0, 
      0.0, 
      0.0, 
      0.0, 
      0.0, 
      0.0, 
      0.0, 
      0.0, 
      0.0, 
      0.0, 
      0.0, 
      0.0, 
      0.0, 
      0.0, 
      0.0, 
      0.0, 
      0.0, 
      0.0, 
      0.0, 
      0.0, 
      0.0, 
      0.0, 
      0.0, 
      0.0, 
      0.0
    ], 
    [
      0.0, 
      0.0, 
      0.0, 
      0.0, 
      0.0, 
      0.0, 
      0.0, 
      0.0, 
      0.0, 
      0.0, 
      0.0, 
      0.0, 
      0.0, 
      0.0, 
      0.0, 
      0.0, 
      0.0, 
      0.0, 
      0.0, 
      0.0, 
      0.0, 
      0.0, 
      0.0, 
      0.0, 
      0.0
    ], 
    [
      0.0, 
      0.0, 
      0.0, 
      0.0, 
      0.0, 
      0.0, 
      0.0, 
      0.0, 
      0.0, 
      0.0, 
      0.0, 
      0.0, 
      0.0, 
      0.0, 
      0.0, 
      0.0, 
      0.0, 
      0.0, 
      0.0, 
      0.0, 
      0.0, 
      0.0, 
      0.0, 
      0.0, 
      0.0
    ], 
    [
      0.0, 
      0.0, 
      0.0, 
      0.0, 
      0.0, 
      0.0, 
      0.0, 
      0.0, 
      0.0, 
      0.0, 
      0.0, 
      0.0, 
      0.0, 
      0.0, 
      0.0, 
      0.0, 
      0.0, 
      0.0, 
      0.0, 
      0.0, 
      0.0, 
      0.0, 
      0.0, 
      0.0, 
      0.0
    ], 
    [
      0.0, 
      0.0, 
      0.0, 
      0.0, 
      0.0, 
      0.0, 
      0.0, 
      0.0, 
      0.0, 
      0.0, 
      0.0, 
      0.0, 
      0.0, 
      0.0, 
      0.0, 
      0.0, 
      0.0, 
      0.0, 
      0.0, 
      0.0, 
      0.0, 
      0.0, 
      0.0, 
      0.0, 
      0.0
    ], 
    [
      7.685935656809306e-07, 
      -0.0017839197535067797, 
      0.0003038038848899305, 
      0.0005189937655813992, 
      -0.00045508937910199165, 
      -0.00021594224381260574, 
      -0.001300953677855432, 
      0.005156688392162323, 
      1.7721405356496689e-06, 
      0.0013963718665763736, 
      -6.478341219917638e-06, 
      6.940236744412687e-06, 
      -0.00220876163803041, 
      0.003235067706555128, 
      -6.842358857284125e-07, 
      0.0045637208968400955, 
      8.158195851137862e-05, 
      6.73740723868832e-05, 
      -0.0016907198587432504, 
      -2.2967971744947135e-05, 
      -5.299314943840727e-05, 
      0.003155898069962859, 
      -2.3559116016258486e-05, 
      -0.0012858487898483872, 
      5.300296948007599e-07
    ], 
    [
      1.7615851675145677e-06, 
      -0.0038730467204004526, 
      -0.00011055796494474635, 
      -0.00014245601778384298, 
      -0.0011469636810943484, 
      -0.00046992962597869337, 
      -0.002063142601400614, 
      0.010174929164350033, 
      3.927576472051442e-05, 
      0.0030487426556646824, 
      9.710412268759683e-05, 
      2.891735130106099e-05, 
      -0.004808832425624132, 
      0.007081286981701851, 
      -2.7868598408531398e-05, 
      0.009809473529458046, 
      0.001978392479941249, 
      0.0014810714637860656, 
      -0.0036638013552874327, 
      2.9557058951468207e-06, 
      -0.002890652744099498, 
      0.007506758905947208, 
      -5.158923886483535e-05, 
      -0.0015494315885007381, 
      1.2355540093267336e-06
    ], 
    [
      8.750055258133216e-08, 
      3.685826595756225e-05, 
      -0.000863298715557903, 
      -0.0014231412205845118, 
      -0.00016744954336900264, 
      3.2376435683545424e-06, 
      0.0008741079946048558, 
      -0.0012423844309523702, 
      3.938829468097538e-05, 
      -9.826162568060681e-06, 
      0.0001238438708242029, 
      1.5268431525328197e-05, 
      3.070561069762334e-05, 
      -2.6668153623177204e-06, 
      -2.9345163056859747e-05, 
      -0.0002042022388195619, 
      0.0020027845166623592, 
      0.0014839809155091643, 
      4.261216236045584e-05, 
      5.925444565946236e-05, 
      -0.003087616991251707, 
      0.0006637137266807258, 
      -3.22999493818088e-09, 
      0.0014089645119383931, 
      8.342921375970036e-08
    ], 
    [
      3.6458562835406383e-09, 
      1.5357607026089681e-06, 
      -3.5970788303529844e-05, 
      -5.92975557083264e-05, 
      -6.977064913371578e-06, 
      1.3490181061115436e-07, 
      3.642116644186899e-05, 
      -5.176601553102955e-05, 
      1.641179096623091e-06, 
      -4.09423392966346e-07, 
      5.160160526429536e-06, 
      6.361846658364811e-07, 
      1.279400180465018e-06, 
      -1.1111725939372263e-07, 
      -1.2227150136823184e-06, 
      -8.508426617481746e-06, 
      8.344935486093163e-05, 
      6.183252844493836e-05, 
      1.7755065755409305e-06, 
      2.4689352358109318e-06, 
      -0.00012865070311818272, 
      2.7654736186377704e-05, 
      -1.3458310854641553e-10, 
      5.870685708941892e-05, 
      3.4762175360469882e-09
    ], 
    [
      0.0, 
      0.0, 
      0.0, 
      0.0, 
      0.0, 
      0.0, 
      0.0, 
      0.0, 
      0.0, 
      0.0, 
      0.0, 
      0.0, 
      0.0, 
      0.0, 
      0.0, 
      0.0, 
      0.0, 
      0.0, 
      0.0, 
      0.0, 
      0.0, 
      0.0, 
      0.0, 
      0.0, 
      0.0
    ], 
    [
      0.0, 
      0.0, 
      0.0, 
      0.0, 
      0.0, 
      0.0, 
      0.0, 
      0.0, 
      0.0, 
      0.0, 
      0.0, 
      0.0, 
      0.0, 
      0.0, 
      0.0, 
      0.0, 
      0.0, 
      0.0, 
      0.0, 
      0.0, 
      0.0, 
      0.0, 
      0.0, 
      0.0, 
      0.0
    ], 
    [
      0.0, 
      0.0, 
      0.0, 
      0.0, 
      0.0, 
      0.0, 
      0.0, 
      0.0, 
      0.0, 
      0.0, 
      0.0, 
      0.0, 
      0.0, 
      0.0, 
      0.0, 
      0.0, 
      0.0, 
      0.0, 
      0.0, 
      0.0, 
      0.0, 
      0.0, 
      0.0, 
      0.0, 
      0.0
    ], 
    [
      0.0, 
      0.0, 
      0.0, 
      0.0, 
      0.0, 
      0.0, 
      0.0, 
      0.0, 
      0.0, 
      0.0, 
      0.0, 
      0.0, 
      0.0, 
      0.0, 
      0.0, 
      0.0, 
      0.0, 
      0.0, 
      0.0, 
      0.0, 
      0.0, 
      0.0, 
      0.0, 
      0.0, 
      0.0
    ], 
    [
      0.0, 
      0.0, 
      0.0, 
      0.0, 
      0.0, 
      0.0, 
      0.0, 
      0.0, 
      0.0, 
      0.0, 
      0.0, 
      0.0, 
      0.0, 
      0.0, 
      0.0, 
      0.0, 
      0.0, 
      0.0, 
      0.0, 
      0.0, 
      0.0, 
      0.0, 
      0.0, 
      0.0, 
      0.0
    ], 
    [
      0.0, 
      0.0, 
      0.0, 
      0.0, 
      0.0, 
      0.0, 
      0.0, 
      0.0, 
      0.0, 
      0.0, 
      0.0, 
      0.0, 
      0.0, 
      0.0, 
      0.0, 
      0.0, 
      0.0, 
      0.0, 
      0.0, 
      0.0, 
      0.0, 
      0.0, 
      0.0, 
      0.0, 
      0.0
    ], 
    [
      0.0, 
      0.0, 
      0.0, 
      0.0, 
      0.0, 
      0.0, 
      0.0, 
      0.0, 
      0.0, 
      0.0, 
      0.0, 
      0.0, 
      0.0, 
      0.0, 
      0.0, 
      0.0, 
      0.0, 
      0.0, 
      0.0, 
      0.0, 
      0.0, 
      0.0, 
      0.0, 
      0.0, 
      0.0
    ], 
    [
      0.0, 
      0.0, 
      0.0, 
      0.0, 
      0.0, 
      0.0, 
      0.0, 
      0.0, 
      0.0, 
      0.0, 
      0.0, 
      0.0, 
      0.0, 
      0.0, 
      0.0, 
      0.0, 
      0.0, 
      0.0, 
      0.0, 
      0.0, 
      0.0, 
      0.0, 
      0.0, 
      0.0, 
      0.0
    ], 
    [
      0.0, 
      0.0, 
      0.0, 
      0.0, 
      0.0, 
      0.0, 
      0.0, 
      0.0, 
      0.0, 
      0.0, 
      0.0, 
      0.0, 
      0.0, 
      0.0, 
      0.0, 
      0.0, 
      0.0, 
      0.0, 
      0.0, 
      0.0, 
      0.0, 
      0.0, 
      0.0, 
      0.0, 
      0.0
    ], 
    [
      0.0, 
      0.0, 
      0.0, 
      0.0, 
      0.0, 
      0.0, 
      0.0, 
      0.0, 
      0.0, 
      0.0, 
      0.0, 
      0.0, 
      0.0, 
      0.0, 
      0.0, 
      0.0, 
      0.0, 
      0.0, 
      0.0, 
      0.0, 
      0.0, 
      0.0, 
      0.0, 
      0.0, 
      0.0
    ], 
    [
      0.0, 
      0.0, 
      0.0, 
      0.0, 
      0.0, 
      0.0, 
      0.0, 
      0.0, 
      0.0, 
      0.0, 
      0.0, 
      0.0, 
      0.0, 
      0.0, 
      0.0, 
      0.0, 
      0.0, 
      0.0, 
      0.0, 
      0.0, 
      0.0, 
      0.0, 
      0.0, 
      0.0, 
      0.0
    ], 
    [
      0.0, 
      0.0, 
      0.0, 
      0.0, 
      0.0, 
      0.0, 
      0.0, 
      0.0, 
      0.0, 
      0.0, 
      0.0, 
      0.0, 
      0.0, 
      0.0, 
      0.0, 
      0.0, 
      0.0, 
      0.0, 
      0.0, 
      0.0, 
      0.0, 
      0.0, 
      0.0, 
      0.0, 
      0.0
    ], 
    [
      0.0, 
      0.0, 
      0.0, 
      0.0, 
      0.0, 
      0.0, 
      0.0, 
      0.0, 
      0.0, 
      0.0, 
      0.0, 
      0.0, 
      0.0, 
      0.0, 
      0.0, 
      0.0, 
      0.0, 
      0.0, 
      0.0, 
      0.0, 
      0.0, 
      0.0, 
      0.0, 
      0.0, 
      0.0
    ], 
    [
      0.0, 
      0.0, 
      0.0, 
      0.0, 
      0.0, 
      0.0, 
      0.0, 
      0.0, 
      0.0, 
      0.0, 
      0.0, 
      0.0, 
      0.0, 
      0.0, 
      0.0, 
      0.0, 
      0.0, 
      0.0, 
      0.0, 
      0.0, 
      0.0, 
      0.0, 
      0.0, 
      0.0, 
      0.0
    ], 
    [
      0.0, 
      0.0, 
      0.0, 
      0.0, 
      0.0, 
      0.0, 
      0.0, 
      0.0, 
      0.0, 
      0.0, 
      0.0, 
      0.0, 
      0.0, 
      0.0, 
      0.0, 
      0.0, 
      0.0, 
      0.0, 
      0.0, 
      0.0, 
      0.0, 
      0.0, 
      0.0, 
      0.0, 
      0.0
    ], 
    [
      0.0, 
      0.0, 
      0.0, 
      0.0, 
      0.0, 
      0.0, 
      0.0, 
      0.0, 
      0.0, 
      0.0, 
      0.0, 
      0.0, 
      0.0, 
      0.0, 
      0.0, 
      0.0, 
      0.0, 
      0.0, 
      0.0, 
      0.0, 
      0.0, 
      0.0, 
      0.0, 
      0.0, 
      0.0
    ], 
    [
      6.30338021778698e-08, 
      -1.2408598593083298e-08, 
      1.1187197515027947e-06, 
      4.391931724967435e-05, 
      -8.870008605299518e-05, 
      -1.834161622582542e-08, 
      -1.5339599030994577e-06, 
      4.515742330113426e-05, 
      -2.033347001884067e-08, 
      1.4019095033290796e-05, 
      -4.620778497610445e-07, 
      3.080322983350925e-07, 
      -2.933596761067747e-07, 
      0.00013198853412177414, 
      2.9611334184664884e-07, 
      2.7683849111781456e-05, 
      -1.6296630178658233e-07, 
      -3.51280853294611e-08, 
      -2.6918175990431337e-06, 
      -7.154785635066219e-06, 
      1.6465853605041048e-06, 
      -3.792973075178452e-05, 
      8.141382012993859e-10, 
      -7.333053417823976e-06, 
      3.16131320232671e-07
    ], 
    [
      1.842880550384507e-07, 
      -1.421701381332241e-05, 
      1.635596163396258e-05, 
      0.0001278255949728191, 
      -0.0003096242726314813, 
      -1.809803052310599e-06, 
      -1.6574551409576088e-05, 
      0.00032139208633452654, 
      -1.198992265472043e-07, 
      4.230532795190811e-05, 
      -1.1655373782559764e-05, 
      2.3903774035716197e-06, 
      -8.742154022911564e-06, 
      0.00040342204738408327, 
      8.773325816946453e-07, 
      8.77876445883885e-05, 
      -5.897996402381978e-07, 
      -1.9583066546147165e-07, 
      -7.164967246353626e-05, 
      -0.0002479015674907714, 
      4.835226718569174e-06, 
      -6.918498547747731e-05, 
      2.396186360442698e-09, 
      -4.006113886134699e-05, 
      3.3557139431650285e-06
    ], 
    [
      -6.131039299361873e-06, 
      -0.005208516959100962, 
      0.005939915776252747, 
      0.00014288710372056812, 
      -0.0027541820891201496, 
      -0.00015353797061834484, 
      -0.004823469091206789, 
      0.013930154964327812, 
      -3.3780315789044835e-06, 
      -0.0004913195734843612, 
      -0.0002271814300911501, 
      3.19077807944268e-05, 
      -0.00927705131471157, 
      0.0012704721884801984, 
      1.8890814317273907e-05, 
      0.0044275992549955845, 
      -2.1302195818861946e-05, 
      -0.0001680845598457381, 
      -0.005068503320217133, 
      -0.014728202484548092, 
      6.0236488934606314e-05, 
      0.0116075174883008, 
      8.361707841686439e-06, 
      -0.000957222655415535, 
      0.00010810375533765182
    ], 
    [
      -6.42106670056819e-06, 
      -0.008674093522131443, 
      0.01833704486489296, 
      0.0016008190577849746, 
      -0.005364608019590378, 
      -0.00029893149621784687, 
      -0.010400512255728245, 
      0.03494805470108986, 
      -1.813341623346787e-05, 
      -0.0018035228131338954, 
      -0.0004407453816384077, 
      2.575920916569885e-05, 
      -0.01779141277074814, 
      0.004448059014976025, 
      5.4471234761876985e-05, 
      0.013600536622107029, 
      9.637594484956935e-05, 
      -0.00026863833772949874, 
      -0.010285497643053532, 
      -0.03781573846936226, 
      0.0005803683307021856, 
      0.02695125713944435, 
      1.9150895241182297e-05, 
      -0.002043636981397867, 
      0.00024828576715663075
    ], 
    [
      4.0009895201365e-06, 
      -0.035889726132154465, 
      0.046237993985414505, 
      0.011512096039950848, 
      -0.005723297595977783, 
      -0.0006861244910396636, 
      -0.06888847053050995, 
      0.059351082891225815, 
      -0.00013824831694364548, 
      -0.002022228902205825, 
      -0.0010484925005584955, 
      -0.0004129250010009855, 
      -0.03395594283938408, 
      0.013720099814236164, 
      3.550175824784674e-05, 
      0.026524651795625687, 
      0.0012561173643916845, 
      0.0019294756930321455, 
      -0.003950487356632948, 
      -0.0648655891418457, 
      0.00883321650326252, 
      0.028216619044542313, 
      -5.127727854414843e-05, 
      -0.008922843262553215, 
      0.000425070698838681
    ], 
    [
      -3.497827492537908e-05, 
      -0.012405803427100182, 
      0.017278611660003662, 
      0.025774305686354637, 
      -0.008498821407556534, 
      -0.0008940742118284106, 
      -0.019964635372161865, 
      0.04820316657423973, 
      -0.00023063768458086997, 
      0.0030055828392505646, 
      -0.0008190752123482525, 
      -0.00015998631715774536, 
      -0.013374369591474533, 
      0.02233131229877472, 
      6.47399210720323e-05, 
      0.02608112432062626, 
      0.002035363344475627, 
      -0.0030819003004580736, 
      -0.001305755809880793, 
      -0.033362165093421936, 
      0.008669513277709484, 
      0.03339116647839546, 
      -0.00011567494948394597, 
      -0.005612805485725403, 
      0.00015141036419663578
    ], 
    [
      -0.00016778420831542462, 
      -0.0069804745726287365, 
      0.022853024303913116, 
      0.0353107713162899, 
      -0.047484830021858215, 
      -0.0031789836939424276, 
      -0.013866983354091644, 
      0.06705904752016068, 
      -0.0005121950525790453, 
      0.014360754750669003, 
      0.0005429932498373091, 
      0.0009832221549004316, 
      -0.031747519969940186, 
      0.03945673257112503, 
      0.0002839071676135063, 
      0.04165042191743851, 
      0.0001181578409159556, 
      -0.001968465279787779, 
      -0.011666320264339447, 
      -0.05231315270066261, 
      0.003748543793335557, 
      0.03923419117927551, 
      -0.00017333525465801358, 
      -0.013509401120245457, 
      -0.00019264104776084423
    ], 
    [
      -0.0001567920990055427, 
      -0.009586961008608341, 
      0.022623850032687187, 
      0.036718420684337616, 
      -0.11208181083202362, 
      -0.009286600165069103, 
      -0.02468017302453518, 
      0.11328785121440887, 
      -0.0072165136225521564, 
      0.025329502299427986, 
      0.0009930252563208342, 
      -0.02107337675988674, 
      -0.023099545389413834, 
      0.0563528798520565, 
      0.004047291353344917, 
      0.06143821403384209, 
      0.0009056873968802392, 
      0.005302839446812868, 
      -0.02971176989376545, 
      -0.03477894142270088, 
      -0.010557158850133419, 
      0.03463130071759224, 
      -0.00012203066580696031, 
      -0.06217283010482788, 
      0.018521863967180252
    ], 
    [
      -0.00035750740789808333, 
      -0.010407310910522938, 
      0.032803505659103394, 
      0.04216665402054787, 
      -0.14556068181991577, 
      -0.0037741318810731173, 
      -0.07299096137285233, 
      0.17413346469402313, 
      -0.011474479921162128, 
      0.029660232365131378, 
      -0.002958516823127866, 
      -0.042819879949092865, 
      -0.018001357093453407, 
      0.06362124532461166, 
      0.00797763466835022, 
      0.07685822248458862, 
      -0.005218991078436375, 
      0.002234536921605468, 
      -0.044869646430015564, 
      -0.0424218513071537, 
      -0.02303188666701317, 
      0.05102739855647087, 
      -6.537022727570729e-06, 
      -0.03769689425826073, 
      0.03762831166386604
    ], 
    [
      -0.00032481798552908003, 
      -0.011388483457267284, 
      0.014413855038583279, 
      0.025396473705768585, 
      -0.051308296620845795, 
      -0.002194204367697239, 
      -0.04740721359848976, 
      0.11969517916440964, 
      -0.004474526271224022, 
      0.029539166018366814, 
      -0.0026768913958221674, 
      -0.017133790999650955, 
      -0.031459592282772064, 
      0.07366489619016647, 
      0.0038428029511123896, 
      0.05623309314250946, 
      -0.01015255507081747, 
      0.00797027163207531, 
      -0.0197334885597229, 
      -0.045829951763153076, 
      -0.016540687531232834, 
      0.01133682020008564, 
      -6.75498231430538e-05, 
      -0.02841765806078911, 
      0.01633642427623272
    ], 
    [
      -0.01064708735793829, 
      -0.005425354931503534, 
      -0.015147773548960686, 
      -0.00375946587882936, 
      -0.009661628864705563, 
      0.011973726563155651, 
      -0.06963492929935455, 
      0.04470247030258179, 
      0.045413024723529816, 
      0.02732914686203003, 
      -0.0024412048514932394, 
      -0.03580692037940025, 
      -0.019592387601733208, 
      0.05629102140665054, 
      0.0005393269821070135, 
      -0.02523145079612732, 
      0.00975045096129179, 
      -0.0007660066476091743, 
      -0.004664685111492872, 
      -0.030428484082221985, 
      -0.03939574211835861, 
      -0.012560739181935787, 
      0.004267038777470589, 
      -0.0011642645113170147, 
      -0.01385992020368576
    ], 
    [
      -0.012570695951581001, 
      -0.005359133705496788, 
      0.011627842672169209, 
      -0.03130759671330452, 
      -0.023941166698932648, 
      0.02041270211338997, 
      -0.13706164062023163, 
      0.041615426540374756, 
      0.07862206548452377, 
      0.01703774742782116, 
      -0.0025456787552684546, 
      -0.08179543167352676, 
      -0.003854708280414343, 
      0.060351692140102386, 
      0.002603324828669429, 
      -0.037855323404073715, 
      0.021056953817605972, 
      -0.011170556768774986, 
      -0.021436940878629684, 
      -0.023753050714731216, 
      -0.05619325116276741, 
      0.017848506569862366, 
      0.010129115544259548, 
      0.016592321917414665, 
      -0.0196144487708807
    ], 
    [
      -0.0013649059692397714, 
      -0.01019874308258295, 
      0.0009768103482201695, 
      -0.0773371011018753, 
      -0.05088625103235245, 
      0.003014383837580681, 
      -0.0515744686126709, 
      0.03145978972315788, 
      -1.4625495168729685e-05, 
      -0.06154835596680641, 
      -0.0012607722310349345, 
      -0.058019693940877914, 
      -0.007829025387763977, 
      0.044535327702760696, 
      0.005025131162256002, 
      0.0333346463739872, 
      0.056142617017030716, 
      0.033132292330265045, 
      -0.052290115505456924, 
      -0.03359905630350113, 
      -0.09148283302783966, 
      0.02295628935098648, 
      0.0005657420842908323, 
      0.05166060850024223, 
      -0.004801228642463684
    ], 
    [
      0.00010092806041939184, 
      -0.004779486916959286, 
      0.005119006615132093, 
      -0.03983001038432121, 
      -0.027785250917077065, 
      -0.001280305441468954, 
      -0.037921298295259476, 
      0.06917283684015274, 
      -0.003588087623938918, 
      -0.016119200736284256, 
      -0.0016687571769580245, 
      -0.017997344955801964, 
      -0.0041239880956709385, 
      0.03705120459198952, 
      0.0017136794049292803, 
      0.03624958172440529, 
      0.03655751794576645, 
      0.037818945944309235, 
      -0.027653083205223083, 
      -0.01692982017993927, 
      -0.03775973245501518, 
      0.022716641426086426, 
      -0.0005741759669035673, 
      0.00991880800575018, 
      0.0008238357258960605
    ], 
    [
      -0.0004022352513857186, 
      -0.0007419695612043142, 
      0.011123234406113625, 
      0.01084891613572836, 
      -0.009086529724299908, 
      -0.0003205136745236814, 
      -0.0036071334034204483, 
      0.06607145816087723, 
      -0.0008070450276136398, 
      0.017787160351872444, 
      -0.0013699098490178585, 
      0.006266305223107338, 
      -0.002650948939844966, 
      0.026586510241031647, 
      0.0008966585155576468, 
      0.027113759890198708, 
      0.0025689322501420975, 
      0.001668810611590743, 
      -0.0020457955542951822, 
      -0.005294385831803083, 
      0.008719610050320625, 
      0.019677558913826942, 
      -0.0001978169457288459, 
      -0.0028982621151953936, 
      0.0009246172849088907
    ], 
    [
      -0.0008942803251557052, 
      -0.0006106604123488069, 
      0.019581861793994904, 
      0.010859055444598198, 
      -0.018190845847129822, 
      -0.0011842556996271014, 
      -0.006944859400391579, 
      0.0403682179749012, 
      -0.001166510977782309, 
      0.01544701773673296, 
      -0.0017807739786803722, 
      0.002104726620018482, 
      -0.0037763151340186596, 
      0.024913420900702477, 
      0.0007871376001276076, 
      0.015785181894898415, 
      -0.0028166279662400484, 
      -0.00794127769768238, 
      -0.0016180521342903376, 
      -0.01561858132481575, 
      0.013418360613286495, 
      0.03185894340276718, 
      -6.2761396293353755e-06, 
      -0.012961748987436295, 
      -0.00020126826711930335
    ], 
    [
      -0.0009190062410198152, 
      -0.0004461830831132829, 
      0.01343395933508873, 
      0.013261472806334496, 
      -0.028068523854017258, 
      -0.0020346553064882755, 
      -0.009020308032631874, 
      0.028328504413366318, 
      -0.0007532155723311007, 
      0.017311446368694305, 
      -0.0013928028056398034, 
      0.0006157859461382031, 
      -0.003112540580332279, 
      0.015524476766586304, 
      -4.127658030483872e-05, 
      0.01466743927448988, 
      -0.0032984709832817316, 
      -0.00448166998103261, 
      -0.001336249290034175, 
      -0.008998852223157883, 
      0.007307291962206364, 
      0.01963265985250473, 
      3.156507227686234e-05, 
      -0.023081457242369652, 
      -0.0012534973211586475
    ], 
    [
      -0.00040540160262025893, 
      -0.0005854237824678421, 
      0.005681526847183704, 
      0.018091386184096336, 
      -0.05030545964837074, 
      -0.0007780318846926093, 
      -0.006068790797144175, 
      0.015637516975402832, 
      -0.00015029592032078654, 
      0.011869005858898163, 
      -0.00034432075335644186, 
      0.0004497694317251444, 
      -0.00386186339892447, 
      0.007416193373501301, 
      -2.2250791516853496e-05, 
      0.010829915292561054, 
      -0.0009061223827302456, 
      -0.0005799341015517712, 
      -0.0017908229492604733, 
      -0.0012275675544515252, 
      0.0029297121800482273, 
      0.00010748668864835054, 
      2.8942253038621857e-07, 
      -0.01721426658332348, 
      -0.0006591036217287183
    ], 
    [
      -1.0350810953241307e-05, 
      -0.0012325517600402236, 
      0.002082571852952242, 
      0.005901410710066557, 
      -0.055844664573669434, 
      -8.063182758633047e-05, 
      -0.0003658680070657283, 
      0.010230522602796555, 
      -0.00010365014168201014, 
      0.0034621141385287046, 
      -0.0004588430456351489, 
      0.0006752236513420939, 
      -0.0036756140179932117, 
      0.0026439474895596504, 
      4.010075372207211e-06, 
      0.005351897329092026, 
      -1.4565319361281581e-05, 
      -9.741881513036788e-05, 
      -0.002856328384950757, 
      -0.0026211689691990614, 
      0.0002747142862062901, 
      0.00269530457444489, 
      -1.541837946206215e-08, 
      -0.0009202419314533472, 
      2.4204620785894804e-05
    ], 
    [
      1.2003419369577273e-09, 
      -0.0011666722130030394, 
      0.000901299761608243, 
      0.00033821933902800083, 
      -0.007691010367125273, 
      -7.496163016185164e-05, 
      -4.8924266593530774e-05, 
      0.010396547615528107, 
      -0.00014156657562125474, 
      -1.895118475658819e-05, 
      -0.0006314982892945409, 
      0.0008552618674002588, 
      -0.002142322715371847, 
      0.0014047620352357626, 
      -2.084091192955384e-06, 
      0.0013562224339693785, 
      -1.5107610124687199e-05, 
      -0.00010122262028744444, 
      -0.00164269027300179, 
      -0.0028564317617565393, 
      3.668062618089607e-07, 
      -0.0002090500929625705, 
      -8.718502364502001e-09, 
      0.00011991985229542479, 
      3.3744370739441365e-05
    ], 
    [
      0.0, 
      0.0, 
      0.0, 
      0.0, 
      0.0, 
      0.0, 
      0.0, 
      0.0, 
      0.0, 
      0.0, 
      0.0, 
      0.0, 
      0.0, 
      0.0, 
      0.0, 
      0.0, 
      0.0, 
      0.0, 
      0.0, 
      0.0, 
      0.0, 
      0.0, 
      0.0, 
      0.0, 
      0.0
    ], 
    [
      0.0, 
      0.0, 
      0.0, 
      0.0, 
      0.0, 
      0.0, 
      0.0, 
      0.0, 
      0.0, 
      0.0, 
      0.0, 
      0.0, 
      0.0, 
      0.0, 
      0.0, 
      0.0, 
      0.0, 
      0.0, 
      0.0, 
      0.0, 
      0.0, 
      0.0, 
      0.0, 
      0.0, 
      0.0
    ], 
    [
      0.0, 
      0.0, 
      0.0, 
      0.0, 
      0.0, 
      0.0, 
      0.0, 
      0.0, 
      0.0, 
      0.0, 
      0.0, 
      0.0, 
      0.0, 
      0.0, 
      0.0, 
      0.0, 
      0.0, 
      0.0, 
      0.0, 
      0.0, 
      0.0, 
      0.0, 
      0.0, 
      0.0, 
      0.0
    ], 
    [
      0.0, 
      0.0, 
      0.0, 
      0.0, 
      0.0, 
      0.0, 
      0.0, 
      0.0, 
      0.0, 
      0.0, 
      0.0, 
      0.0, 
      0.0, 
      0.0, 
      0.0, 
      0.0, 
      0.0, 
      0.0, 
      0.0, 
      0.0, 
      0.0, 
      0.0, 
      0.0, 
      0.0, 
      0.0
    ], 
    [
      0.0, 
      0.0, 
      0.0, 
      0.0, 
      0.0, 
      0.0, 
      0.0, 
      0.0, 
      0.0, 
      0.0, 
      0.0, 
      0.0, 
      0.0, 
      0.0, 
      0.0, 
      0.0, 
      0.0, 
      0.0, 
      0.0, 
      0.0, 
      0.0, 
      0.0, 
      0.0, 
      0.0, 
      0.0
    ], 
    [
      0.0, 
      0.0, 
      0.0, 
      0.0, 
      0.0, 
      0.0, 
      0.0, 
      0.0, 
      0.0, 
      0.0, 
      0.0, 
      0.0, 
      0.0, 
      0.0, 
      0.0, 
      0.0, 
      0.0, 
      0.0, 
      0.0, 
      0.0, 
      0.0, 
      0.0, 
      0.0, 
      0.0, 
      0.0
    ], 
    [
      1.73909098233338e-09, 
      -5.5341949689591274e-08, 
      2.2953950974624604e-05, 
      1.1424498552514706e-05, 
      -1.1249909448451945e-06, 
      -1.5517724258340415e-11, 
      -6.938076069218369e-08, 
      8.335019629157614e-06, 
      -7.81438594388284e-11, 
      -4.148383141000522e-06, 
      -1.8806043726726784e-06, 
      9.718613682707655e-07, 
      -1.3453550309350248e-06, 
      8.337738108821213e-06, 
      -8.869544387835049e-08, 
      0.00012008139310637489, 
      -6.284378795129442e-09, 
      -4.5140458038162024e-10, 
      -5.586673523794161e-07, 
      -1.2866032648162218e-06, 
      4.813815849047387e-06, 
      1.0130994269275106e-05, 
      -4.078772319893176e-10, 
      -1.0208248113485752e-06, 
      3.4945884408443817e-07
    ], 
    [
      -0.0005214265547692776, 
      -7.664637450943701e-06, 
      0.0005259600002318621, 
      -0.00016088596021290869, 
      -0.00029298587469384074, 
      -2.8198774089105427e-06, 
      -6.592547288164496e-05, 
      0.0008107518078759313, 
      -1.2012769730063155e-05, 
      2.4505268811481073e-05, 
      0.0001996790961129591, 
      -0.004177250433713198, 
      -5.244560725259362e-06, 
      2.342221159779001e-05, 
      0.0019171162275597453, 
      0.0007658663089387119, 
      -1.093373839466949e-06, 
      0.0035545718856155872, 
      -5.329390842234716e-05, 
      -0.0005927463644184172, 
      -0.007825457490980625, 
      0.0004007896641269326, 
      2.945512960650376e-06, 
      -2.639442936924752e-05, 
      0.004697985481470823
    ], 
    [
      3.9357319110422395e-06, 
      -3.755501165869646e-05, 
      0.0001257404946954921, 
      0.0003279666416347027, 
      -0.0002788582642097026, 
      -6.576142823178088e-06, 
      -0.0005944774020463228, 
      0.0043021515011787415, 
      -5.335937657946488e-06, 
      0.0011917524971067905, 
      9.291389869758859e-05, 
      -0.001460583764128387, 
      -0.00010345818009227514, 
      0.001107553718611598, 
      0.0007012648857198656, 
      0.0008673949050717056, 
      -1.5910991351120174e-05, 
      0.001241717953234911, 
      -3.865604230668396e-05, 
      -6.872665835544467e-05, 
      -0.0015238471096381545, 
      0.0018462234875187278, 
      5.535973173209641e-07, 
      -0.001228490611538291, 
      0.0018503160681575537
    ], 
    [
      7.101929782038496e-07, 
      -6.413332448573783e-05, 
      0.0020893660839647055, 
      0.0001956852647708729, 
      -0.00034618363133631647, 
      -7.646951416973025e-06, 
      -0.0006404108717106283, 
      0.002141365548595786, 
      -6.46801822767884e-07, 
      0.00029829738195985556, 
      -2.8755639505106956e-06, 
      0.0001274702517548576, 
      -8.279407484224066e-05, 
      0.0010778503492474556, 
      -0.00025002105394378304, 
      0.0005440948880277574, 
      8.675589015183505e-06, 
      -0.0006151960114948452, 
      -0.0002582829038146883, 
      -0.0010499547934159636, 
      0.0008944034343585372, 
      0.0009049840155057609, 
      -1.3316144986674772e-07, 
      -0.0003967861703131348, 
      -2.5734660084708594e-05
    ], 
    [
      -0.0004964230465702713, 
      -0.0037406254559755325, 
      0.02701239287853241, 
      0.008217050693929195, 
      -0.0034842886961996555, 
      -0.0003289920568931848, 
      -0.005290332715958357, 
      0.03732304647564888, 
      -0.0005775219760835171, 
      0.00019248982425779104, 
      0.0010364481713622808, 
      0.0007013011490926147, 
      -0.030111495405435562, 
      0.009647530503571033, 
      -0.00017520519031677395, 
      0.01197095587849617, 
      0.0004097204655408859, 
      -0.010380144231021404, 
      -0.005377998575568199, 
      -0.02927054651081562, 
      0.016520006582140923, 
      0.025332624092698097, 
      -0.0007105453405529261, 
      -0.003681907197460532, 
      -0.00452576857060194
    ], 
    [
      -0.0036742854863405228, 
      -0.044048283249139786, 
      0.06833748519420624, 
      0.02896931953728199, 
      -0.016378644853830338, 
      -0.0036306935362517834, 
      -0.05218754708766937, 
      0.14124982059001923, 
      -0.0022098557092249393, 
      0.0006944088963791728, 
      0.00023285008501261473, 
      -0.0041019851341843605, 
      -0.10699129849672318, 
      0.04685050994157791, 
      0.0024007479660212994, 
      0.05872948467731476, 
      -0.00626978138461709, 
      -0.029037604108452797, 
      -0.014996315352618694, 
      -0.07399310171604156, 
      0.017290133982896805, 
      0.08165675401687622, 
      -0.002752873348072171, 
      -0.015412615612149239, 
      -0.021795960143208504
    ], 
    [
      -0.013010620139539242, 
      -0.09361758828163147, 
      0.1416664868593216, 
      0.05307634174823761, 
      -0.023288527503609657, 
      -0.008981628343462944, 
      -0.13906234502792358, 
      0.2514263093471527, 
      -0.004622040316462517, 
      -0.01173505187034607, 
      -0.006012939848005772, 
      0.007071543950587511, 
      -0.1339101344347, 
      0.07728219032287598, 
      -0.008904519490897655, 
      0.1112540140748024, 
      -0.019570685923099518, 
      -0.04435001686215401, 
      -0.013897775672376156, 
      -0.14670994877815247, 
      0.060576919466257095, 
      0.15391473472118378, 
      -0.008639384061098099, 
      -0.029079247266054153, 
      -0.044170234352350235
    ], 
    [
      -0.08137642592191696, 
      -0.08788606524467468, 
      0.22147691249847412, 
      0.07121846079826355, 
      -0.052337512373924255, 
      -0.018769100308418274, 
      -0.03617984429001808, 
      0.3224467635154724, 
      -0.010771813802421093, 
      -0.02633441798388958, 
      -0.0018641127971932292, 
      0.02927491068840027, 
      -0.1415403038263321, 
      0.14536695182323456, 
      -0.031912680715322495, 
      0.16852791607379913, 
      -0.008317910134792328, 
      0.006226520054042339, 
      -0.02230946347117424, 
      -0.17973138391971588, 
      0.13191865384578705, 
      0.22186708450317383, 
      -0.05196730047464371, 
      0.015003572218120098, 
      -0.07727843523025513
    ], 
    [
      -0.05231751501560211, 
      -0.16484585404396057, 
      0.3077377378940582, 
      0.09411481767892838, 
      -0.2812129259109497, 
      -0.0477006770670414, 
      -0.11878441274166107, 
      0.38167521357536316, 
      -0.04600420966744423, 
      0.002482085023075342, 
      -0.0019914605654776096, 
      0.02686622366309166, 
      -0.26499465107917786, 
      0.2625255882740021, 
      -0.04134192317724228, 
      0.2579646408557892, 
      -0.04717884957790375, 
      -0.012711103074252605, 
      -0.07684578746557236, 
      -0.23689262568950653, 
      0.10761787742376328, 
      0.285309374332428, 
      -0.030747169628739357, 
      -0.09017632156610489, 
      -0.06346069276332855
    ], 
    [
      -0.033650223165750504, 
      -0.11520411819219589, 
      0.24951767921447754, 
      0.13815757632255554, 
      -0.31452706456184387, 
      -0.05977747589349747, 
      -0.1417471170425415, 
      0.45396509766578674, 
      -0.07419700175523758, 
      0.06713791191577911, 
      -0.04845704510807991, 
      0.02539946138858795, 
      -0.2606895864009857, 
      0.3036431074142456, 
      -0.10097050666809082, 
      0.32598891854286194, 
      -0.14029908180236816, 
      -0.011451389640569687, 
      -0.06863255798816681, 
      -0.3112482726573944, 
      0.13067187368869781, 
      0.29938575625419617, 
      -0.022316565737128258, 
      -0.137189581990242, 
      -0.03997191786766052
    ], 
    [
      -0.06667116284370422, 
      -0.12816666066646576, 
      0.31796908378601074, 
      0.19989566504955292, 
      -0.2502947747707367, 
      -0.010944715701043606, 
      -0.2428121715784073, 
      0.6480649709701538, 
      -0.021793214604258537, 
      0.17038482427597046, 
      -0.08945097774267197, 
      -0.05135294049978256, 
      -0.35244888067245483, 
      0.3648005425930023, 
      -0.10043742507696152, 
      0.39204108715057373, 
      -0.19408908486366272, 
      -0.09030404686927795, 
      -0.08739304542541504, 
      -0.4398735463619232, 
      0.1830151528120041, 
      0.4358985424041748, 
      -0.046671245247125626, 
      -0.07546855509281158, 
      -0.054626792669296265
    ], 
    [
      -0.09104360640048981, 
      -0.11551012843847275, 
      0.271095335483551, 
      0.16505305469036102, 
      -0.19785858690738678, 
      -0.00813568290323019, 
      -0.1640503704547882, 
      0.7243258357048035, 
      0.0002017280930886045, 
      0.21675164997577667, 
      -0.11259022355079651, 
      -0.18554891645908356, 
      -0.44610992074012756, 
      0.44063130021095276, 
      -0.11079830676317215, 
      0.3806930482387543, 
      -0.20182925462722778, 
      -0.1528041809797287, 
      -0.07121477276086807, 
      -0.43032336235046387, 
      0.14060622453689575, 
      0.45330941677093506, 
      -0.038470447063446045, 
      -0.045543693006038666, 
      -0.13330085575580597
    ], 
    [
      -0.13719132542610168, 
      -0.11690349131822586, 
      0.26515454053878784, 
      0.17364923655986786, 
      -0.18403734266757965, 
      0.020849090069532394, 
      -0.16554759442806244, 
      0.5343231558799744, 
      0.09028550982475281, 
      0.1862376183271408, 
      -0.12256357818841934, 
      -0.07704171538352966, 
      -0.4070359766483307, 
      0.3983149230480194, 
      -0.10338209569454193, 
      0.4071240723133087, 
      -0.19406726956367493, 
      -0.1082063838839531, 
      -0.05675613135099411, 
      -0.43399015069007874, 
      0.20981277525424957, 
      0.45021170377731323, 
      -0.025873253121972084, 
      -0.006834171246737242, 
      -0.2237253040075302
    ], 
    [
      -0.17082005739212036, 
      -0.089213527739048, 
      0.29000410437583923, 
      0.0837784856557846, 
      -0.16278855502605438, 
      0.046097978949546814, 
      -0.15673589706420898, 
      0.3423425853252411, 
      0.14806939661502838, 
      0.25023800134658813, 
      -0.14513182640075684, 
      -0.15373051166534424, 
      -0.2510252296924591, 
      0.35972633957862854, 
      -0.09534648060798645, 
      0.3184160888195038, 
      -0.07726532220840454, 
      -0.24299019575119019, 
      -0.04868294671177864, 
      -0.4587387144565582, 
      0.11686848104000092, 
      0.5250036716461182, 
      0.05615469813346863, 
      0.12731623649597168, 
      -0.23728035390377045
    ], 
    [
      -0.1355890929698944, 
      -0.0920930728316307, 
      0.23846684396266937, 
      0.035904377698898315, 
      -0.2238258719444275, 
      -0.021110638976097107, 
      -0.059902217239141464, 
      0.3288082778453827, 
      0.08047223091125488, 
      0.20109854638576508, 
      -0.14648708701133728, 
      -0.11958024650812149, 
      -0.17346347868442535, 
      0.34938329458236694, 
      -0.07424301654100418, 
      0.3674464225769043, 
      0.05010923743247986, 
      -0.21424268186092377, 
      -0.06188424304127693, 
      -0.4442817270755768, 
      0.03886996582150459, 
      0.473892480134964, 
      0.09602853655815125, 
      0.11732785403728485, 
      -0.13816556334495544
    ], 
    [
      -0.1517132818698883, 
      -0.07000482082366943, 
      0.13744211196899414, 
      0.06373420357704163, 
      -0.15023228526115417, 
      -0.0855451226234436, 
      -0.1351056545972824, 
      0.3782343864440918, 
      -0.010648814961314201, 
      0.18690446019172668, 
      -0.08746187388896942, 
      0.032554991543293, 
      -0.1283264011144638, 
      0.29793334007263184, 
      -0.05547184497117996, 
      0.35375910997390747, 
      -0.03659941628575325, 
      -0.06020638719201088, 
      -0.030010439455509186, 
      -0.28863686323165894, 
      0.10027661174535751, 
      0.3675439953804016, 
      0.040784548968076706, 
      -0.060328852385282516, 
      -0.053059134632349014
    ], 
    [
      -0.10924626886844635, 
      -0.05794419348239899, 
      0.1222173199057579, 
      0.16357184946537018, 
      -0.16211670637130737, 
      -0.05554278939962387, 
      -0.10966483503580093, 
      0.41782379150390625, 
      -0.03988150879740715, 
      0.20112290978431702, 
      -0.056278981268405914, 
      0.05146222561597824, 
      -0.12327311187982559, 
      0.25390738248825073, 
      -0.07950940728187561, 
      0.22663664817810059, 
      -0.11492781341075897, 
      -0.08707381039857864, 
      -0.016860198229551315, 
      -0.24992777407169342, 
      0.13458728790283203, 
      0.3226747214794159, 
      0.051259301602840424, 
      -0.18403099477291107, 
      -0.06542309373617172
    ], 
    [
      -0.052638743072748184, 
      -0.031418684870004654, 
      0.14773042500019073, 
      0.3066869080066681, 
      -0.12774965167045593, 
      -0.05440066382288933, 
      -0.12264751642942429, 
      0.3296360969543457, 
      -0.07164561748504639, 
      0.25752168893814087, 
      -0.0426434651017189, 
      0.07710877805948257, 
      -0.06943365186452866, 
      0.1993633210659027, 
      -0.06676571071147919, 
      0.15176677703857422, 
      -0.13327257335186005, 
      -0.15956422686576843, 
      -0.01058207917958498, 
      -0.19317008554935455, 
      0.23658663034439087, 
      0.35041770339012146, 
      0.0130918575450778, 
      -0.14929641783237457, 
      -0.11266439408063889
    ], 
    [
      -0.06960278004407883, 
      -0.004598327446728945, 
      0.12060360610485077, 
      0.19932188093662262, 
      -0.055360615253448486, 
      -0.02164907567203045, 
      -0.07449644804000854, 
      0.1906585991382599, 
      -0.05251745134592056, 
      0.16836708784103394, 
      -0.017764611169695854, 
      0.03582946956157684, 
      -0.036418162286281586, 
      0.15491372346878052, 
      -0.07524511963129044, 
      0.0946192592382431, 
      -0.04702680930495262, 
      -0.10501604527235031, 
      -0.004866665229201317, 
      -0.16972893476486206, 
      0.18039068579673767, 
      0.22405941784381866, 
      -0.0019335888791829348, 
      -0.1016567274928093, 
      -0.09149571508169174
    ], 
    [
      -0.0825246125459671, 
      -0.013120400719344616, 
      0.0993795096874237, 
      0.12667126953601837, 
      -0.07520589232444763, 
      -0.007005141116678715, 
      -0.08007176965475082, 
      0.18197692930698395, 
      -0.037738606333732605, 
      0.09216855466365814, 
      -0.0075368802063167095, 
      0.015994347631931305, 
      -0.07764437049627304, 
      0.10124267637729645, 
      -0.051301002502441406, 
      0.12262815237045288, 
      -0.07305623590946198, 
      -0.060905031859874725, 
      -0.002326944610103965, 
      -0.07418620586395264, 
      0.11377929151058197, 
      0.14745718240737915, 
      -0.021220523864030838, 
      -0.13566312193870544, 
      -0.04567199572920799
    ], 
    [
      -0.034702446311712265, 
      -0.00851680152118206, 
      0.05415065959095955, 
      0.0927947387099266, 
      -0.08793216943740845, 
      -0.0013482242356985807, 
      -0.09487517178058624, 
      0.12730863690376282, 
      -0.029538167640566826, 
      0.05874285474419594, 
      -0.004981820471584797, 
      0.008273418992757797, 
      -0.06506797671318054, 
      0.05258684977889061, 
      -0.009524032473564148, 
      0.08326880633831024, 
      -0.10907629132270813, 
      -0.04107769578695297, 
      -0.003634551540017128, 
      -0.016577761620283127, 
      0.05407891795039177, 
      0.0606190487742424, 
      -0.007837001234292984, 
      -0.10904916375875473, 
      -0.005942734889686108
    ], 
    [
      -0.011710216291248798, 
      -0.0022685923613607883, 
      0.019349467009305954, 
      0.03099987469613552, 
      -0.03934593126177788, 
      -0.00021033815573900938, 
      -0.03131323680281639, 
      0.04790736362338066, 
      -0.01626228354871273, 
      0.012966649606823921, 
      -0.003116951324045658, 
      0.0044987085275352, 
      -0.027784373611211777, 
      0.01735673099756241, 
      -0.0016172467730939388, 
      0.036234050989151, 
      -0.028144540265202522, 
      -0.011543708853423595, 
      -0.002413824899122119, 
      -0.022887755185365677, 
      0.023531805723905563, 
      0.021434098482131958, 
      0.0058730789460241795, 
      -0.0325985811650753, 
      0.0003087405930273235
    ], 
    [
      -0.00155452371109277, 
      -0.0002766513207461685, 
      0.016122234985232353, 
      0.004007658455520868, 
      -0.008761383593082428, 
      -5.033579873270355e-05, 
      0.03119545616209507, 
      -0.0124814473092556, 
      -0.004901332780718803, 
      -0.03773319721221924, 
      0.00030512461671605706, 
      0.002240822184830904, 
      -0.010615416802465916, 
      0.006894279737025499, 
      -0.0001756716810632497, 
      0.013615550473332405, 
      0.02098836749792099, 
      0.0004268207121640444, 
      -0.00013741565635427833, 
      -0.010530081577599049, 
      0.009601262398064137, 
      0.014220518060028553, 
      -0.0011200892040506005, 
      -0.001344120828434825, 
      0.0005320162163116038
    ], 
    [
      8.187505954992957e-06, 
      -6.592546560568735e-05, 
      0.006709225010126829, 
      -0.0011035166680812836, 
      -0.0030275743920356035, 
      -7.91580063719266e-08, 
      0.028489315882325172, 
      -0.014738298021256924, 
      -0.00032019338686950505, 
      -0.027205411344766617, 
      0.0007788939983583987, 
      -8.051449549384415e-05, 
      -0.0031264142598956823, 
      0.0002370197616983205, 
      -0.0002627583162393421, 
      0.0011928778840228915, 
      0.016784045845270157, 
      0.0006190608837641776, 
      -1.8856796941690845e-06, 
      -0.00024317385395988822, 
      0.0021680400241166353, 
      0.0024934415705502033, 
      -2.405827763141133e-05, 
      0.004539716523140669, 
      -6.160268094390631e-05
    ], 
    [
      0.0, 
      0.0, 
      0.0, 
      0.0, 
      0.0, 
      0.0, 
      0.0, 
      0.0, 
      0.0, 
      0.0, 
      0.0, 
      0.0, 
      0.0, 
      0.0, 
      0.0, 
      0.0, 
      0.0, 
      0.0, 
      0.0, 
      0.0, 
      0.0, 
      0.0, 
      0.0, 
      0.0, 
      0.0
    ], 
    [
      0.0, 
      0.0, 
      0.0, 
      0.0, 
      0.0, 
      0.0, 
      0.0, 
      0.0, 
      0.0, 
      0.0, 
      0.0, 
      0.0, 
      0.0, 
      0.0, 
      0.0, 
      0.0, 
      0.0, 
      0.0, 
      0.0, 
      0.0, 
      0.0, 
      0.0, 
      0.0, 
      0.0, 
      0.0
    ], 
    [
      0.0, 
      0.0, 
      0.0, 
      0.0, 
      0.0, 
      0.0, 
      0.0, 
      0.0, 
      0.0, 
      0.0, 
      0.0, 
      0.0, 
      0.0, 
      0.0, 
      0.0, 
      0.0, 
      0.0, 
      0.0, 
      0.0, 
      0.0, 
      0.0, 
      0.0, 
      0.0, 
      0.0, 
      0.0
    ], 
    [
      0.0, 
      0.0, 
      0.0, 
      0.0, 
      0.0, 
      0.0, 
      0.0, 
      0.0, 
      0.0, 
      0.0, 
      0.0, 
      0.0, 
      0.0, 
      0.0, 
      0.0, 
      0.0, 
      0.0, 
      0.0, 
      0.0, 
      0.0, 
      0.0, 
      0.0, 
      0.0, 
      0.0, 
      0.0
    ], 
    [
      8.506872291036416e-06, 
      0.00034393416717648506, 
      0.0002100687997881323, 
      -6.685960670438362e-06, 
      0.0007315030670724809, 
      0.0040985289961099625, 
      9.609279368305579e-05, 
      -0.00013632350601255894, 
      0.0053003584034740925, 
      0.00014486453437712044, 
      -4.453680048754904e-06, 
      -0.0006192513974383473, 
      0.00032879257923923433, 
      2.315908386663068e-05, 
      -4.0409517509942816e-07, 
      -0.0007620496326126158, 
      0.0004101516678929329, 
      3.1268624297808856e-05, 
      -2.6236127723677782e-06, 
      -2.8541708161355928e-06, 
      -0.00019807927310466766, 
      0.00010075770842377096, 
      0.0003398528788238764, 
      0.0017429942963644862, 
      -3.7672618873330066e-06
    ], 
    [
      -0.004243507981300354, 
      -4.055118915857747e-05, 
      0.010825867764651775, 
      5.729399708798155e-05, 
      -0.000727358041331172, 
      0.0009685363038443029, 
      -0.0003003837482538074, 
      0.002624631393700838, 
      0.0012541465694084764, 
      0.001277775620110333, 
      3.8498819776577875e-05, 
      -0.011767157353460789, 
      -0.00044117035577073693, 
      0.0022725542075932026, 
      3.781064515351318e-05, 
      0.005993172060698271, 
      9.423308802070096e-05, 
      0.008472849614918232, 
      -0.00025609758449718356, 
      -0.004796179942786694, 
      -0.022276464849710464, 
      0.0037866064812988043, 
      0.00012474496907088906, 
      0.0002054933283943683, 
      0.009852473624050617
    ], 
    [
      -0.008103176020085812, 
      0.00038408939144574106, 
      0.008391879498958588, 
      0.006899786181747913, 
      -0.00032581522827968, 
      -0.00012720050290226936, 
      -0.003794368589296937, 
      0.004779653623700142, 
      -2.216591929027345e-05, 
      0.0017651236848905683, 
      -0.0010693304939195514, 
      0.0006162290810607374, 
      -0.0002963570586871356, 
      0.0048805344849824905, 
      -0.004499766044318676, 
      -0.002589578041806817, 
      -3.62311075150501e-05, 
      -0.012982050888240337, 
      -0.00017258396837860346, 
      -0.028441838920116425, 
      -0.0028552766889333725, 
      0.004356279503554106, 
      0.0003737119841389358, 
      -0.0016173149924725294, 
      -0.0032402833458036184
    ], 
    [
      0.0054681566543877125, 
      0.026500502601265907, 
      -0.005170267540961504, 
      -0.007931666448712349, 
      -0.007451785262674093, 
      -0.0014962195418775082, 
      -0.0031655007041990757, 
      -0.052036020904779434, 
      -0.0023952170740813017, 
      -0.008290551602840424, 
      0.003185870125889778, 
      0.013042204082012177, 
      0.0018722295062616467, 
      0.010705871507525444, 
      -0.02765768952667713, 
      0.00440530851483345, 
      0.024526063352823257, 
      -0.0111357057467103, 
      -0.002421881537884474, 
      -0.03324183449149132, 
      0.012920292094349861, 
      0.006914450787007809, 
      0.002987606916576624, 
      -0.002052989788353443, 
      -0.00763317383825779
    ], 
    [
      -0.021053509786725044, 
      0.010531051084399223, 
      0.08745589852333069, 
      0.008499186486005783, 
      -0.027630627155303955, 
      -0.004050977062433958, 
      -0.01331909466534853, 
      0.019943106919527054, 
      -0.003137365449219942, 
      -0.005595664028078318, 
      0.010046012699604034, 
      0.03337560594081879, 
      -0.04944712668657303, 
      0.01602231338620186, 
      -0.030194908380508423, 
      0.028989780694246292, 
      0.038937654346227646, 
      -0.01947769522666931, 
      -0.010854463092982769, 
      -0.09323045611381531, 
      0.0332593098282814, 
      0.06807783991098404, 
      -0.01603132113814354, 
      -0.003595723072066903, 
      -0.034156423062086105
    ], 
    [
      -0.043876539915800095, 
      -0.05909961462020874, 
      0.10955682396888733, 
      0.03458641469478607, 
      -0.0608336441218853, 
      -0.02167055569589138, 
      -0.06556914001703262, 
      0.12514998018741608, 
      -0.02179105393588543, 
      -0.008068793453276157, 
      0.02790045738220215, 
      0.041332751512527466, 
      -0.17798663675785065, 
      0.016399618238210678, 
      -0.10351039469242096, 
      0.09757228195667267, 
      0.06386436522006989, 
      -0.11319513618946075, 
      -0.02106132172048092, 
      -0.20194362103939056, 
      0.06931480765342712, 
      0.09843762964010239, 
      -0.010846268385648727, 
      -0.024231037124991417, 
      -0.1051899716258049
    ], 
    [
      -0.10030949115753174, 
      -0.21968451142311096, 
      0.07972165942192078, 
      0.06627748161554337, 
      -0.14251945912837982, 
      -0.08427178859710693, 
      0.003907394595444202, 
      0.26373419165611267, 
      -0.08725254237651825, 
      -0.05937642976641655, 
      0.06728942692279816, 
      0.11599960923194885, 
      -0.323103666305542, 
      0.09233620762825012, 
      -0.1114257350564003, 
      0.1970580816268921, 
      0.08987512439489365, 
      -0.07692507654428482, 
      -0.03357590734958649, 
      -0.38000980019569397, 
      0.10847622156143188, 
      0.05897748842835426, 
      -0.09002691507339478, 
      0.0030055446550250053, 
      -0.08610238134860992
    ], 
    [
      -0.22126315534114838, 
      -0.35932421684265137, 
      0.17759253084659576, 
      0.020130669698119164, 
      -0.17953598499298096, 
      -0.09265052527189255, 
      0.055593136698007584, 
      0.2658354938030243, 
      -0.08207961171865463, 
      -0.12626220285892487, 
      0.11073754727840424, 
      0.1365632265806198, 
      -0.42394718527793884, 
      0.22494244575500488, 
      -0.12764090299606323, 
      0.22771432995796204, 
      0.17049522697925568, 
      0.011749817989766598, 
      -0.07105664908885956, 
      -0.5472000241279602, 
      0.20977520942687988, 
      0.24494467675685883, 
      -0.16185182332992554, 
      0.10190913826227188, 
      -0.14547878503799438
    ], 
    [
      -0.24225035309791565, 
      -0.27322283387184143, 
      0.09025566279888153, 
      -0.03658522292971611, 
      -0.42025208473205566, 
      -0.17794233560562134, 
      0.03371007740497589, 
      0.2144186794757843, 
      -0.17257480323314667, 
      -0.14305876195430756, 
      0.13024035096168518, 
      0.143422931432724, 
      -0.5190590023994446, 
      0.310109406709671, 
      -0.20082058012485504, 
      0.22033441066741943, 
      0.18529950082302094, 
      -0.04399346187710762, 
      -0.14327135682106018, 
      -0.628746509552002, 
      0.1730084866285324, 
      0.24541038274765015, 
      -0.15648438036441803, 
      0.11366511136293411, 
      -0.18251599371433258
    ], 
    [
      -0.16510362923145294, 
      -0.06569353491067886, 
      -0.14314307272434235, 
      -0.11578401178121567, 
      -0.4545527696609497, 
      -0.35515427589416504, 
      0.025886140763759613, 
      0.20269232988357544, 
      -0.31769517064094543, 
      -0.19450967013835907, 
      0.09166936576366425, 
      0.1480555385351181, 
      -0.5659746527671814, 
      0.3837449848651886, 
      -0.31914764642715454, 
      0.23094715178012848, 
      -0.011943724937736988, 
      0.042920250445604324, 
      -0.1432284414768219, 
      -0.8198965191841125, 
      0.22185774147510529, 
      0.05624230578541756, 
      -0.20653274655342102, 
      0.22835701704025269, 
      -0.09563830494880676
    ], 
    [
      -0.05077333748340607, 
      -0.002661032835021615, 
      -0.18778875470161438, 
      -0.05660432204604149, 
      -0.5631697177886963, 
      -0.3390670716762543, 
      0.05947432667016983, 
      0.32888150215148926, 
      -0.28889963030815125, 
      -0.2576712965965271, 
      0.007994466461241245, 
      0.05238035321235657, 
      -0.5981407761573792, 
      0.5946940779685974, 
      -0.29583966732025146, 
      0.22761937975883484, 
      0.03485748544335365, 
      0.09852799028158188, 
      -0.1371764838695526, 
      -0.8757956027984619, 
      0.1392919421195984, 
      0.10530558973550797, 
      -0.09369190782308578, 
      0.3296574354171753, 
      0.015035792253911495
    ], 
    [
      -0.019938882440328598, 
      -0.22799214720726013, 
      -0.11379297077655792, 
      0.042325738817453384, 
      -0.803396999835968, 
      -0.25467514991760254, 
      0.021499961614608765, 
      0.4448826313018799, 
      -0.23644138872623444, 
      -0.3643054962158203, 
      -0.18476536870002747, 
      -0.0226903073489666, 
      -0.7579904794692993, 
      0.6750213503837585, 
      -0.22582878172397614, 
      0.3398910164833069, 
      -0.006319029722362757, 
      0.1515926867723465, 
      -0.1654210388660431, 
      -0.8492804169654846, 
      0.098793163895607, 
      0.053437381982803345, 
      -0.13430719077587128, 
      0.2989034056663513, 
      0.004824760835617781
    ], 
    [
      -0.0012601499911397696, 
      -0.0694618746638298, 
      -0.0031120567582547665, 
      0.051023926585912704, 
      -0.8356150388717651, 
      -0.32660359144210815, 
      0.14844539761543274, 
      0.3954770267009735, 
      -0.32530733942985535, 
      -0.32332006096839905, 
      -0.25323811173439026, 
      0.07121910154819489, 
      -0.8029637336730957, 
      0.5333578586578369, 
      -0.3018670678138733, 
      0.22325845062732697, 
      -0.15609028935432434, 
      0.04930976778268814, 
      -0.15341363847255707, 
      -0.8518869876861572, 
      0.4029216468334198, 
      -0.10301932692527771, 
      -0.035883400589227676, 
      0.2482946366071701, 
      0.04644789174199104
    ], 
    [
      -0.13593359291553497, 
      0.02627868764102459, 
      0.09386677294969559, 
      -0.04028799384832382, 
      -0.7931420803070068, 
      -0.28896716237068176, 
      0.12048570066690445, 
      0.38689476251602173, 
      -0.22770710289478302, 
      -0.24277055263519287, 
      -0.2532918155193329, 
      0.06526285409927368, 
      -0.6622816920280457, 
      0.340992271900177, 
      -0.3769184350967407, 
      -0.0371827632188797, 
      -0.1329980492591858, 
      -0.019214818254113197, 
      -0.15779313445091248, 
      -0.8375058174133301, 
      0.2483769953250885, 
      0.08258074522018433, 
      0.2624390721321106, 
      0.3331626057624817, 
      -0.00836899969726801
    ], 
    [
      -0.1251179277896881, 
      -0.015704086050391197, 
      0.22364899516105652, 
      -0.0029778559692204, 
      -0.6200105547904968, 
      -0.2500900328159332, 
      0.10373459756374359, 
      0.36419984698295593, 
      -0.26555967330932617, 
      -0.15878424048423767, 
      -0.2911870777606964, 
      -0.10743418335914612, 
      -0.6574960350990295, 
      0.38948872685432434, 
      -0.32317018508911133, 
      0.06946853548288345, 
      -0.3259759545326233, 
      0.06419605761766434, 
      -0.12220267951488495, 
      -0.5639348030090332, 
      0.2511536777019501, 
      0.3901253044605255, 
      0.12837755680084229, 
      0.26164737343788147, 
      0.0325138084590435
    ], 
    [
      0.05016452074050903, 
      -0.13887816667556763, 
      0.266380250453949, 
      0.0015016538091003895, 
      -0.4714587926864624, 
      -0.20169928669929504, 
      -0.03354720026254654, 
      0.36278843879699707, 
      -0.284939169883728, 
      0.04929918423295021, 
      -0.2935667335987091, 
      -0.2348613440990448, 
      -0.7043994665145874, 
      0.3050074875354767, 
      -0.2983698844909668, 
      0.09701182693243027, 
      -0.315473735332489, 
      -0.05105927214026451, 
      -0.08120662719011307, 
      -0.41456976532936096, 
      0.3697029650211334, 
      0.28187987208366394, 
      0.052088603377342224, 
      0.061220988631248474, 
      0.05774012953042984
    ], 
    [
      0.047925159335136414, 
      -0.21661117672920227, 
      0.11807627230882645, 
      0.19832615554332733, 
      -0.45355546474456787, 
      -0.34496062994003296, 
      -0.040320806205272675, 
      0.6002060770988464, 
      -0.34163162112236023, 
      0.2516183853149414, 
      -0.2748868763446808, 
      -0.13675649464130402, 
      -0.515898585319519, 
      0.34591245651245117, 
      -0.3161356449127197, 
      0.10345268994569778, 
      -0.3546488285064697, 
      -0.19335415959358215, 
      -0.024182993918657303, 
      -0.485042929649353, 
      0.6381855010986328, 
      0.24696357548236847, 
      0.07531259953975677, 
      -0.3293282687664032, 
      -0.056805696338415146
    ], 
    [
      -0.07406323403120041, 
      -0.39934447407722473, 
      0.21482017636299133, 
      0.5261839032173157, 
      -0.41548076272010803, 
      -0.3633953928947449, 
      -0.10350164771080017, 
      0.6433100700378418, 
      -0.4026288092136383, 
      0.2616306245326996, 
      -0.1510995626449585, 
      0.1263761669397354, 
      -0.32634735107421875, 
      0.15446366369724274, 
      -0.24498456716537476, 
      0.1686699092388153, 
      -0.26965585350990295, 
      -0.28463292121887207, 
      -0.033518772572278976, 
      -0.3507346212863922, 
      0.8381275534629822, 
      0.31843745708465576, 
      0.036437906324863434, 
      -0.31984248757362366, 
      -0.10081399232149124
    ], 
    [
      -0.1667005568742752, 
      -0.48214855790138245, 
      0.23832112550735474, 
      0.43529337644577026, 
      -0.3281489610671997, 
      -0.3338682949542999, 
      -0.09207397699356079, 
      0.5286862254142761, 
      -0.4828234612941742, 
      0.24112701416015625, 
      -0.0838291123509407, 
      0.15627966821193695, 
      -0.36569681763648987, 
      0.014946925453841686, 
      -0.21191437542438507, 
      0.010373163037002087, 
      -0.2708968222141266, 
      -0.30390042066574097, 
      -0.030014924705028534, 
      -0.23349124193191528, 
      0.4991866648197174, 
      0.1158377081155777, 
      0.007107086014002562, 
      -0.4077197313308716, 
      -0.11742513626813889
    ], 
    [
      -0.21445021033287048, 
      -0.3591115176677704, 
      0.17158791422843933, 
      0.3917304575443268, 
      -0.3079008162021637, 
      -0.2681123614311218, 
      -0.13627848029136658, 
      0.4459240734577179, 
      -0.370492547750473, 
      0.2116481363773346, 
      -0.0687631145119667, 
      0.08729644864797592, 
      -0.3973906934261322, 
      0.022179748862981796, 
      -0.2069459855556488, 
      0.02258467860519886, 
      -0.23255151510238647, 
      -0.23897117376327515, 
      -0.016709037125110626, 
      -0.2772805094718933, 
      0.3306322991847992, 
      -0.04023979604244232, 
      -0.032943423837423325, 
      -0.42723897099494934, 
      -0.26363039016723633
    ], 
    [
      -0.20802655816078186, 
      -0.16367411613464355, 
      0.0861792266368866, 
      0.3047788143157959, 
      -0.1772965043783188, 
      -0.07256055623292923, 
      -0.26339927315711975, 
      0.2458217740058899, 
      -0.17622771859169006, 
      0.2056407332420349, 
      -0.04568590968847275, 
      0.06386642158031464, 
      -0.3066459596157074, 
      0.023802507668733597, 
      -0.2305724173784256, 
      -0.1326294243335724, 
      -0.22098450362682343, 
      -0.21230627596378326, 
      -0.0033808760344982147, 
      -0.265766978263855, 
      0.25673648715019226, 
      -0.15875908732414246, 
      -0.06112150475382805, 
      -0.42381611466407776, 
      -0.28293970227241516
    ], 
    [
      -0.17601485550403595, 
      -0.04798974469304085, 
      0.08415461331605911, 
      0.11438398063182831, 
      -0.055447522550821304, 
      -0.006556586362421513, 
      -0.20705066621303558, 
      0.166693314909935, 
      -0.1599469780921936, 
      0.08618713170289993, 
      -0.010794306173920631, 
      0.04382772743701935, 
      -0.2194903939962387, 
      0.0090261809527874, 
      -0.1903480589389801, 
      -0.05398809164762497, 
      -0.18155911564826965, 
      -0.14102104306221008, 
      -0.0003275786875747144, 
      -0.21513210237026215, 
      0.10794495046138763, 
      -0.08062157779932022, 
      -0.04801321029663086, 
      -0.3148665130138397, 
      -0.15117256343364716
    ], 
    [
      -0.07151535153388977, 
      -0.04269670322537422, 
      0.08122792094945908, 
      0.08880117535591125, 
      -0.04272695630788803, 
      -0.005903702694922686, 
      -0.020904498174786568, 
      0.08172618597745895, 
      -0.09639259427785873, 
      -0.011478052474558353, 
      0.009397202171385288, 
      0.07282065600156784, 
      -0.19239358603954315, 
      0.016011996194720268, 
      -0.08968643844127655, 
      0.0067051611840724945, 
      -0.10299885272979736, 
      -0.04076818749308586, 
      -0.0003986668889410794, 
      -0.11240591108798981, 
      0.012185854837298393, 
      -0.013648669235408306, 
      0.007992054335772991, 
      -0.11622794717550278, 
      -0.05247791111469269
    ], 
    [
      -0.014055253006517887, 
      -0.000675298972055316, 
      -0.029747622087597847, 
      0.014043761417269707, 
      -0.003487286390736699, 
      -0.0009933534311130643, 
      0.022977111861109734, 
      -0.002355011412873864, 
      0.004921233747154474, 
      -0.02566607855260372, 
      0.01178831048309803, 
      0.008163098245859146, 
      -0.031032631173729897, 
      0.0003018440620508045, 
      0.014702868647873402, 
      -0.03675812482833862, 
      -0.008857534267008305, 
      0.0008876984938979149, 
      -3.1817533454159275e-05, 
      -0.004787467885762453, 
      0.0009417278924956918, 
      -0.014866831712424755, 
      -0.006518488749861717, 
      -0.0032108663581311703, 
      0.0018106600036844611
    ], 
    [
      0.0011171341175213456, 
      -0.0004756773996632546, 
      -0.007573301438242197, 
      0.0016861377516761422, 
      -0.00411869864910841, 
      -2.597867705844692e-06, 
      -8.30971694085747e-05, 
      7.314661343116313e-05, 
      0.00172288971953094, 
      -0.000295175559585914, 
      0.0023910868912935257, 
      0.009322693571448326, 
      -0.018254011869430542, 
      0.0003717919171322137, 
      0.007259196601808071, 
      -0.00817355141043663, 
      -0.00691614393144846, 
      0.00017589378694538027, 
      -2.2284739316091873e-06, 
      0.00041391386184841394, 
      -0.00010699756967369467, 
      0.009265474043786526, 
      -0.0006517612491734326, 
      -0.0008949424372985959, 
      0.0030407842714339495
    ], 
    [
      0.0, 
      0.0, 
      0.0, 
      0.0, 
      0.0, 
      0.0, 
      0.0, 
      0.0, 
      0.0, 
      0.0, 
      0.0, 
      0.0, 
      0.0, 
      0.0, 
      0.0, 
      0.0, 
      0.0, 
      0.0, 
      0.0, 
      0.0, 
      0.0, 
      0.0, 
      0.0, 
      0.0, 
      0.0
    ], 
    [
      0.0, 
      0.0, 
      0.0, 
      0.0, 
      0.0, 
      0.0, 
      0.0, 
      0.0, 
      0.0, 
      0.0, 
      0.0, 
      0.0, 
      0.0, 
      0.0, 
      0.0, 
      0.0, 
      0.0, 
      0.0, 
      0.0, 
      0.0, 
      0.0, 
      0.0, 
      0.0, 
      0.0, 
      0.0
    ], 
    [
      6.827289325883612e-06, 
      0.00015218291082419455, 
      -1.1126429626528989e-06, 
      -2.0121260604355484e-05, 
      -4.015139893454034e-06, 
      -3.6595363184233065e-08, 
      7.442974492732901e-06, 
      2.5357473987241974e-06, 
      -1.5632762639938846e-08, 
      -4.191012067167321e-06, 
      0.00017399678472429514, 
      -0.00015242220251820982, 
      8.798702037893236e-05, 
      -2.9678463420168555e-07, 
      -2.646770099090645e-06, 
      -1.9185332348570228e-05, 
      -3.2574855595157715e-06, 
      0.00016106860130093992, 
      1.5346759596468473e-07, 
      -3.04006152873626e-06, 
      -5.916401732974919e-07, 
      7.025047580100363e-06, 
      1.790400165191386e-05, 
      5.979214847684489e-07, 
      0.00042704236693680286
    ], 
    [
      0.0002301969361724332, 
      0.0015847247559577227, 
      0.000295227364404127, 
      -0.0003030321095138788, 
      0.0025123506784439087, 
      0.014052055776119232, 
      0.0013155791675671935, 
      -0.000624051142949611, 
      0.018171466886997223, 
      0.0008479756070300937, 
      0.0001630685292184353, 
      -0.002320030238479376, 
      0.0014671399258077145, 
      -0.00010913723235717043, 
      -0.0001323717151535675, 
      -0.00362278800457716, 
      0.0014933162601664662, 
      0.00017277771257795393, 
      -4.676544904214097e-06, 
      -0.00016763694293331355, 
      -0.0006685035186819732, 
      0.0005103522562421858, 
      0.0011956485686823726, 
      0.006369998212903738, 
      0.00012841368152294308
    ], 
    [
      0.00022573086607735604, 
      0.0022863904014229774, 
      -0.002087236614897847, 
      -0.009423441253602505, 
      0.0021554026752710342, 
      0.003950033336877823, 
      0.004819357767701149, 
      -0.007984954863786697, 
      0.00542391138151288, 
      -0.0021411029156297445, 
      0.0011496345978230238, 
      -0.00881126243621111, 
      0.0008221439784392715, 
      0.002170652151107788, 
      -0.006533392705023289, 
      -0.002764457371085882, 
      0.005397092085331678, 
      0.001646481454372406, 
      0.0011971042258664966, 
      0.0030910195782780647, 
      -0.003018801100552082, 
      -0.003204193664714694, 
      0.006100367289036512, 
      0.00813156459480524, 
      0.000790756952483207
    ], 
    [
      0.011995465494692326, 
      0.01672399789094925, 
      -0.0038404506631195545, 
      -0.03621863201260567, 
      -0.002758951159194112, 
      -0.0013951597502455115, 
      0.01669422909617424, 
      -0.011498110368847847, 
      -0.0008623066823929548, 
      -0.015469178557395935, 
      0.005441032350063324, 
      -0.003557556075975299, 
      0.017347048968076706, 
      0.006444293539971113, 
      -0.05189651623368263, 
      -0.010991806164383888, 
      0.003645377466455102, 
      -0.02317056991159916, 
      0.0013513732701539993, 
      -0.052259016782045364, 
      0.029445555061101913, 
      -0.006821744609624147, 
      0.020490286871790886, 
      0.01664007268846035, 
      -0.009565501473844051
    ], 
    [
      0.007708854973316193, 
      0.08365371823310852, 
      0.04222841188311577, 
      -0.16124659776687622, 
      -0.018075745552778244, 
      -0.02150454744696617, 
      0.06375646591186523, 
      -0.13509856164455414, 
      -0.00967892911285162, 
      -0.125406414270401, 
      0.025316644459962845, 
      -0.07533759623765945, 
      0.024156764149665833, 
      0.011078288778662682, 
      -0.1507386565208435, 
      -0.02414475381374359, 
      0.08203356713056564, 
      -0.04907768592238426, 
      -0.006775821093469858, 
      -0.17514127492904663, 
      0.03273262456059456, 
      -0.01075509563088417, 
      0.05276469886302948, 
      0.03992500156164169, 
      -0.02303304523229599
    ], 
    [
      0.035296980291604996, 
      0.12072082608938217, 
      0.08794812858104706, 
      -0.22924375534057617, 
      -0.019731689244508743, 
      -0.029942825436592102, 
      0.09697941690683365, 
      -0.12677952647209167, 
      -0.020282264798879623, 
      -0.24325107038021088, 
      0.07067618519067764, 
      -0.010687028057873249, 
      -0.013526972383260727, 
      -0.030145345255732536, 
      -0.2742670774459839, 
      0.008305741474032402, 
      0.0638631284236908, 
      0.0087154321372509, 
      -0.018088452517986298, 
      -0.28846997022628784, 
      0.02926304005086422, 
      -0.0037725751753896475, 
      0.08898988366127014, 
      0.10667399317026138, 
      -0.04895753040909767
    ], 
    [
      0.05512939393520355, 
      0.1331413835287094, 
      0.0724836140871048, 
      -0.17272669076919556, 
      -0.12687204778194427, 
      -0.1024056151509285, 
      0.1072656586766243, 
      -0.11392781138420105, 
      -0.1167464330792427, 
      -0.2900528609752655, 
      0.13531266152858734, 
      0.10076375305652618, 
      -0.15396001935005188, 
      -0.02779199555516243, 
      -0.3269909918308258, 
      0.06600537896156311, 
      0.18599088490009308, 
      0.03070695884525776, 
      -0.034690599888563156, 
      -0.38255739212036133, 
      0.06671145558357239, 
      -0.12337768822908401, 
      0.08976001292467117, 
      0.1290942132472992, 
      -0.10677629709243774
    ], 
    [
      0.0022297182586044073, 
      0.0884590819478035, 
      0.07751629501581192, 
      -0.4063607454299927, 
      -0.13510599732398987, 
      -0.14674915373325348, 
      0.1543808877468109, 
      -0.15383678674697876, 
      -0.18155992031097412, 
      -0.46225452423095703, 
      0.17665089666843414, 
      0.1941755712032318, 
      -0.27890077233314514, 
      0.005447594448924065, 
      -0.39317965507507324, 
      0.14550268650054932, 
      0.22655831277370453, 
      0.05789593234658241, 
      -0.08170752972364426, 
      -0.5289397239685059, 
      0.18854238092899323, 
      -0.1747916042804718, 
      -0.07861991971731186, 
      0.2940886616706848, 
      -0.041270021349191666
    ], 
    [
      -0.060998160392045975, 
      -0.005793490447103977, 
      0.07097584754228592, 
      -0.5379478335380554, 
      -0.2886529564857483, 
      -0.3040243089199066, 
      0.21134717762470245, 
      -0.19479946792125702, 
      -0.28824907541275024, 
      -0.457327276468277, 
      0.3233172297477722, 
      0.12902145087718964, 
      -0.3748599886894226, 
      0.10746562480926514, 
      -0.3920651972293854, 
      0.12102053314447403, 
      0.47865763306617737, 
      0.11555888503789902, 
      -0.17546378076076508, 
      -0.6393653750419617, 
      0.14392037689685822, 
      -0.1697278469800949, 
      -0.15932314097881317, 
      0.4984411895275116, 
      0.08439476788043976
    ], 
    [
      0.04113584756851196, 
      0.1486024707555771, 
      0.20004040002822876, 
      -0.5042335987091064, 
      -0.4403112232685089, 
      -0.35408371686935425, 
      0.5728952288627625, 
      -0.2335495501756668, 
      -0.31567472219467163, 
      -0.45271608233451843, 
      0.5135400295257568, 
      0.1842602640390396, 
      -0.3720555901527405, 
      0.23375794291496277, 
      -0.42919886112213135, 
      0.11132094264030457, 
      0.5802850127220154, 
      0.0978439673781395, 
      -0.23400922119617462, 
      -0.7417793869972229, 
      -0.01646335795521736, 
      0.1489465832710266, 
      -0.07507649809122086, 
      0.5705298185348511, 
      0.13681133091449738
    ], 
    [
      0.21419259905815125, 
      0.18888914585113525, 
      -0.08491244167089462, 
      -0.22409263253211975, 
      -0.3770606815814972, 
      -0.3270949721336365, 
      0.5944646000862122, 
      -0.2268841564655304, 
      -0.2185506522655487, 
      -0.5254786014556885, 
      0.6818327307701111, 
      0.01860133372247219, 
      -0.3202281594276428, 
      0.3603566884994507, 
      -0.23638366162776947, 
      -0.17112977802753448, 
      0.5201311707496643, 
      0.32843858003616333, 
      -0.24631278216838837, 
      -0.5322407484054565, 
      -0.1745426058769226, 
      0.08268557488918304, 
      0.05340787395834923, 
      0.5498645901679993, 
      0.2956385612487793
    ], 
    [
      0.08152416348457336, 
      0.21003006398677826, 
      -0.14860787987709045, 
      -0.07676532864570618, 
      -0.36917442083358765, 
      -0.06478898972272873, 
      0.1791520118713379, 
      -0.32828882336616516, 
      -0.13594834506511688, 
      -0.5761572122573853, 
      0.5388463735580444, 
      -0.04517386853694916, 
      -0.23231428861618042, 
      0.3155550956726074, 
      -0.3258032202720642, 
      -0.29711976647377014, 
      0.48588621616363525, 
      0.5045302510261536, 
      -0.3928292393684387, 
      -0.427642285823822, 
      -0.09711341559886932, 
      0.030513638630509377, 
      0.049350589513778687, 
      0.4349425435066223, 
      0.1232140064239502
    ], 
    [
      0.03469153121113777, 
      0.2572755813598633, 
      -0.14259646832942963, 
      -0.2669839859008789, 
      -0.2811529040336609, 
      0.0003198595659341663, 
      0.06026482209563255, 
      -0.4195306599140167, 
      -0.0336294062435627, 
      -0.3709777593612671, 
      0.32904955744743347, 
      -0.09741181135177612, 
      -0.22687622904777527, 
      0.2662947475910187, 
      -0.37874025106430054, 
      -0.19911295175552368, 
      0.21187534928321838, 
      0.3702259361743927, 
      -0.5243454575538635, 
      -0.24644649028778076, 
      -0.20583347976207733, 
      0.042579252272844315, 
      0.047285061329603195, 
      0.280964195728302, 
      -0.0046489061787724495
    ], 
    [
      -0.11570027470588684, 
      0.23111172020435333, 
      -0.1822195053100586, 
      -0.47054263949394226, 
      -0.4547131359577179, 
      -0.14050766825675964, 
      0.17091181874275208, 
      -0.35169076919555664, 
      0.05081009864807129, 
      -0.2290874570608139, 
      0.19527149200439453, 
      -0.13272598385810852, 
      -0.018273435533046722, 
      0.12813104689121246, 
      -0.5313805937767029, 
      -0.3573286831378937, 
      0.28994426131248474, 
      0.20373372733592987, 
      -0.5934468507766724, 
      -0.4693591892719269, 
      -0.20599207282066345, 
      0.06770296394824982, 
      -0.047674570232629776, 
      0.387848824262619, 
      -0.2921041250228882
    ], 
    [
      0.22200115025043488, 
      0.06840668618679047, 
      -0.348985880613327, 
      -0.3013075590133667, 
      -0.3973081707954407, 
      -0.1752990037202835, 
      0.13999275863170624, 
      -0.0629851445555687, 
      0.0211640577763319, 
      -0.12106221914291382, 
      -0.014655846171081066, 
      -0.2253856062889099, 
      -0.12585429847240448, 
      0.3666036128997803, 
      -0.22043530642986298, 
      -0.37735703587532043, 
      0.19814004004001617, 
      0.3905829191207886, 
      -0.5326036810874939, 
      -0.34428995847702026, 
      -0.3719061017036438, 
      -0.036113690584897995, 
      0.3037169277667999, 
      0.24098706245422363, 
      0.012207239866256714
    ], 
    [
      0.06538169831037521, 
      0.006290026009082794, 
      -0.29534006118774414, 
      0.06947997212409973, 
      -0.03993542492389679, 
      -0.02218128740787506, 
      0.2401893585920334, 
      0.03522476553916931, 
      0.0266463290899992, 
      -0.015144990757107735, 
      -0.3504484295845032, 
      -0.11289536207914352, 
      -0.3468906581401825, 
      0.3856617510318756, 
      0.026144428178668022, 
      -0.10014540702104568, 
      0.09428449720144272, 
      0.23025189340114594, 
      -0.46006104350090027, 
      -0.24537266790866852, 
      0.020599937066435814, 
      0.0014820289798080921, 
      -0.004961719736456871, 
      0.19327004253864288, 
      -0.02592330239713192
    ], 
    [
      0.0302201546728611, 
      0.05262276530265808, 
      -0.0199647918343544, 
      -0.028413761407136917, 
      -0.09134658426046371, 
      -0.11295907199382782, 
      0.10103646665811539, 
      0.3035851716995239, 
      -0.05965183302760124, 
      0.07145164161920547, 
      -0.12416834384202957, 
      -0.036687061190605164, 
      -0.3651311695575714, 
      0.301268994808197, 
      0.14396463334560394, 
      0.08568865805864334, 
      0.03855118155479431, 
      -0.0566137470304966, 
      -0.37033653259277344, 
      -0.282409131526947, 
      0.28512412309646606, 
      0.05863301455974579, 
      0.03199953958392143, 
      0.03727519139647484, 
      0.08315698802471161
    ], 
    [
      0.20030049979686737, 
      0.2539241313934326, 
      -0.38886183500289917, 
      0.00156232132576406, 
      0.009124347940087318, 
      -0.05544304847717285, 
      0.11948150396347046, 
      0.21320778131484985, 
      0.09338030964136124, 
      -0.22439196705818176, 
      0.0018321117386221886, 
      -0.19117751717567444, 
      -0.2618296444416046, 
      0.34254568815231323, 
      0.12055851519107819, 
      -0.2887035012245178, 
      -0.05047019571065903, 
      0.11593184620141983, 
      -0.2402220517396927, 
      -0.40524110198020935, 
      0.33399495482444763, 
      -0.28092172741889954, 
      0.2988782525062561, 
      0.012303706258535385, 
      0.23809637129306793
    ], 
    [
      0.12980987131595612, 
      0.36792027950286865, 
      -0.0010059620253741741, 
      0.022702166810631752, 
      0.3129631578922272, 
      0.1909557729959488, 
      0.07738902419805527, 
      -0.03327454626560211, 
      0.17651458084583282, 
      -0.18177229166030884, 
      -0.2836400866508484, 
      0.005703113041818142, 
      -0.1720779836177826, 
      0.15561902523040771, 
      -0.08814116567373276, 
      -0.3838662803173065, 
      -0.1949905902147293, 
      -0.0727526992559433, 
      -0.17861220240592957, 
      -0.3522756099700928, 
      0.39884501695632935, 
      0.0272530484944582, 
      0.2588193416595459, 
      0.14191702008247375, 
      -0.08120951056480408
    ], 
    [
      -0.18753427267074585, 
      -0.024206146597862244, 
      -0.01512505579739809, 
      -0.06159299612045288, 
      0.2604685425758362, 
      0.26443374156951904, 
      0.004614326171576977, 
      -0.06680630147457123, 
      0.0317678265273571, 
      -0.009999685920774937, 
      -0.3937710225582123, 
      -0.0019163131946697831, 
      -0.3893967866897583, 
      -0.15207885205745697, 
      -0.18723435699939728, 
      -0.23633712530136108, 
      -0.2918427884578705, 
      -0.0887499526143074, 
      -0.11036331951618195, 
      -0.38858360052108765, 
      0.18806374073028564, 
      0.008824375458061695, 
      0.022905781865119934, 
      0.13897646963596344, 
      -0.3002519905567169
    ], 
    [
      0.029609134420752525, 
      -0.11629123240709305, 
      -0.12398011237382889, 
      0.21383221447467804, 
      0.3876316547393799, 
      0.42206060886383057, 
      -0.15953657031059265, 
      0.26643678545951843, 
      0.03139777481555939, 
      0.09298571944236755, 
      -0.371673047542572, 
      -0.09103283286094666, 
      -0.45060622692108154, 
      -0.16210702061653137, 
      0.04698913171887398, 
      -0.15582679212093353, 
      -0.3354221284389496, 
      -0.13869057595729828, 
      -0.029870308935642242, 
      -0.2994852364063263, 
      0.09864071011543274, 
      -0.15645864605903625, 
      0.2869454622268677, 
      -0.10703889280557632, 
      -0.22039078176021576
    ], 
    [
      0.015815315768122673, 
      -0.22808292508125305, 
      -0.1875150501728058, 
      0.27869904041290283, 
      0.2463439404964447, 
      0.20769470930099487, 
      -0.18807825446128845, 
      0.17959260940551758, 
      -0.029063615947961807, 
      0.26396360993385315, 
      -0.29749801754951477, 
      -0.2892722487449646, 
      -0.5149425268173218, 
      -0.17950214445590973, 
      -0.05679924786090851, 
      -0.25228002667427063, 
      -0.3675439953804016, 
      -0.22652852535247803, 
      -0.04484817013144493, 
      -0.21509552001953125, 
      0.19508767127990723, 
      -0.4164285361766815, 
      0.2301056832075119, 
      -0.2631838619709015, 
      -0.21416044235229492
    ], 
    [
      -0.03025546483695507, 
      -0.11982233077287674, 
      -0.0011686186771839857, 
      0.49245685338974, 
      0.1799948811531067, 
      0.03369224816560745, 
      -0.3001842498779297, 
      0.13963152468204498, 
      0.03081495314836502, 
      0.3351651728153229, 
      -0.1800801157951355, 
      -0.01773487590253353, 
      -0.32315799593925476, 
      -0.19067949056625366, 
      -0.00820067897439003, 
      -0.2085242122411728, 
      -0.3633998930454254, 
      -0.27510425448417664, 
      -0.022652510553598404, 
      -0.10921318829059601, 
      0.17333248257637024, 
      -0.3422890901565552, 
      0.14572666585445404, 
      -0.4877719581127167, 
      -0.19592295587062836
    ], 
    [
      0.08491573482751846, 
      -0.0075178793631494045, 
      -0.08491075783967972, 
      0.29904434084892273, 
      -0.04604214057326317, 
      -0.08867696672677994, 
      -0.09154779464006424, 
      -0.039808981120586395, 
      -0.07951033115386963, 
      0.1062827929854393, 
      0.013032223097980022, 
      0.07255036383867264, 
      -0.14695219695568085, 
      -0.11752980947494507, 
      -0.07329344749450684, 
      -0.27642279863357544, 
      -0.17945870757102966, 
      -0.19661769270896912, 
      -0.005314226727932692, 
      0.02036617510020733, 
      0.020831039175391197, 
      -0.3034588098526001, 
      0.16703183948993683, 
      -0.2712746262550354, 
      -0.06180668994784355
    ], 
    [
      0.022383136674761772, 
      -0.017160939052700996, 
      -0.058900050818920135, 
      0.06428443640470505, 
      -0.08014710247516632, 
      -0.030869832262396812, 
      0.020084742456674576, 
      -0.06044718623161316, 
      -0.06379403918981552, 
      -0.01808111183345318, 
      0.041282929480075836, 
      0.029820464551448822, 
      0.004421229008585215, 
      -0.04214230924844742, 
      -0.007216752506792545, 
      -0.11982595175504684, 
      -0.018016908317804337, 
      -0.0659475177526474, 
      0.00032660929718986154, 
      -0.02850356511771679, 
      -0.032113056629896164, 
      -0.08557801693677902, 
      0.023152243345975876, 
      -0.0397171676158905, 
      0.01094187330454588
    ], 
    [
      0.008146742358803749, 
      -0.00694309314712882, 
      -0.004479363560676575, 
      0.011157702654600143, 
      -0.05303503945469856, 
      -0.005042163655161858, 
      -0.0008461543475277722, 
      -0.001962502021342516, 
      -0.04090970382094383, 
      0.0004852374840993434, 
      0.00372243276797235, 
      -0.029376214370131493, 
      0.015500184148550034, 
      0.004346104804426432, 
      0.0030736273620277643, 
      -0.013793419115245342, 
      0.0045659784227609634, 
      0.00044523499673232436, 
      0.00017098539683502167, 
      -0.025193151086568832, 
      -0.010255251079797745, 
      -0.0016779094003140926, 
      0.015514650382101536, 
      -0.01095136720687151, 
      0.021037934347987175
    ], 
    [
      -0.00017482065595686436, 
      -0.0011139727430418134, 
      0.00397771131247282, 
      0.012732725590467453, 
      -0.014623329974710941, 
      -0.0011348207481205463, 
      -0.000720040057785809, 
      0.0008418044890277088, 
      -0.01900368183851242, 
      -0.00046892609680071473, 
      6.531750113936141e-05, 
      0.0012247849954292178, 
      -0.009123928844928741, 
      0.0007123956456780434, 
      6.714987830491737e-05, 
      0.00946218241006136, 
      -0.019258473068475723, 
      -0.0005665160715579987, 
      -5.8289173466619104e-05, 
      -0.005007290747016668, 
      -0.0006452267407439649, 
      0.0040950956754386425, 
      -0.0005688079399988055, 
      -0.010728285647928715, 
      -9.409904305357486e-05
    ], 
    [
      0.0, 
      0.0, 
      0.0, 
      0.0, 
      0.0, 
      0.0, 
      0.0, 
      0.0, 
      0.0, 
      0.0, 
      0.0, 
      0.0, 
      0.0, 
      0.0, 
      0.0, 
      0.0, 
      0.0, 
      0.0, 
      0.0, 
      0.0, 
      0.0, 
      0.0, 
      0.0, 
      0.0, 
      0.0
    ], 
    [
      0.0, 
      0.0, 
      0.0, 
      0.0, 
      0.0, 
      0.0, 
      0.0, 
      0.0, 
      0.0, 
      0.0, 
      0.0, 
      0.0, 
      0.0, 
      0.0, 
      0.0, 
      0.0, 
      0.0, 
      0.0, 
      0.0, 
      0.0, 
      0.0, 
      0.0, 
      0.0, 
      0.0, 
      0.0
    ], 
    [
      -7.814195851096883e-05, 
      0.0008781294454820454, 
      0.0011633924441412091, 
      -0.0008269114186987281, 
      0.00028651056345552206, 
      0.0019513970473781228, 
      0.001196444733068347, 
      -0.0016224142163991928, 
      0.002247842028737068, 
      -0.0007429171237163246, 
      0.00048326567048206925, 
      0.002150003332644701, 
      0.000364426028681919, 
      0.0005844746483489871, 
      -0.005244795233011246, 
      -0.0003375054511707276, 
      0.0002517807006370276, 
      8.725052612135187e-05, 
      3.631631989264861e-05, 
      -0.002441585063934326, 
      0.0007067173137329519, 
      0.0030821908731013536, 
      0.0012907751370221376, 
      0.0031250459142029285, 
      -0.0004315327387303114
    ], 
    [
      0.03119703382253647, 
      0.012211384251713753, 
      -0.044893860816955566, 
      -0.06722754240036011, 
      -0.002280676504597068, 
      0.004583971109241247, 
      0.028978610411286354, 
      -0.05254611000418663, 
      0.004538867622613907, 
      -0.027786487713456154, 
      0.00115426373668015, 
      -0.032244641333818436, 
      0.002779633505269885, 
      -0.00013306578330229968, 
      -0.02570483833551407, 
      -0.04921755567193031, 
      0.03806861490011215, 
      0.011622145771980286, 
      -0.0003195776080247015, 
      -0.003494653617963195, 
      -0.018309442326426506, 
      -0.009380966424942017, 
      0.04337458312511444, 
      0.054780714213848114, 
      0.015730584040284157
    ], 
    [
      0.07156946510076523, 
      0.06711842864751816, 
      -0.05576205626130104, 
      -0.19618211686611176, 
      -0.009056047536432743, 
      0.004035779275000095, 
      0.10883612185716629, 
      -0.15857921540737152, 
      -0.00942637212574482, 
      -0.05009450390934944, 
      0.013661671429872513, 
      -0.04069943726062775, 
      0.07210700958967209, 
      -0.04976770281791687, 
      -0.12059381604194641, 
      -0.0711061954498291, 
      0.07799691706895828, 
      -0.024568405002355576, 
      -0.01604512892663479, 
      -0.1250147521495819, 
      0.017853887751698494, 
      0.00527656264603138, 
      0.12233932316303253, 
      0.13945485651493073, 
      0.011668030172586441
    ], 
    [
      0.12997202575206757, 
      0.3156376779079437, 
      -0.15848582983016968, 
      -0.392598956823349, 
      0.02047622762620449, 
      -0.002866193652153015, 
      0.22588343918323517, 
      -0.39054515957832336, 
      -0.03185451403260231, 
      -0.21251000463962555, 
      0.04665342718362808, 
      -0.18098223209381104, 
      0.11157454550266266, 
      -0.1950049251317978, 
      -0.2888410687446594, 
      -0.1786903291940689, 
      0.22400015592575073, 
      -0.005430817138403654, 
      -0.0314352884888649, 
      -0.13366489112377167, 
      -0.09219084680080414, 
      -0.07797102630138397, 
      0.22219833731651306, 
      0.18402479588985443, 
      0.05660790950059891
    ], 
    [
      0.10582973062992096, 
      0.42533594369888306, 
      -0.06797192990779877, 
      -0.33492761850357056, 
      -0.0007710450445301831, 
      -0.0494966134428978, 
      0.3201216459274292, 
      -0.350507527589798, 
      -0.10709046572446823, 
      -0.4958052337169647, 
      0.08695408701896667, 
      -0.046629127115011215, 
      0.17575527727603912, 
      -0.2506500482559204, 
      -0.5127219557762146, 
      -0.18021783232688904, 
      0.1847289800643921, 
      0.0818902775645256, 
      -0.037682197988033295, 
      -0.24276554584503174, 
      0.014084869995713234, 
      -0.19169847667217255, 
      0.17382529377937317, 
      0.18426190316677094, 
      0.07108284533023834
    ], 
    [
      0.0017438135109841824, 
      0.3480101525783539, 
      -0.047915082424879074, 
      -0.2618851065635681, 
      -0.18972130119800568, 
      -0.12144625186920166, 
      0.3122146725654602, 
      -0.2899984121322632, 
      -0.20855684578418732, 
      -0.651840329170227, 
      0.10190165042877197, 
      0.14070811867713928, 
      -0.03320031613111496, 
      -0.2052076756954193, 
      -0.5022240281105042, 
      -0.04933939129114151, 
      0.3432822823524475, 
      0.0930938646197319, 
      -0.03298121690750122, 
      -0.2954733669757843, 
      0.10817351937294006, 
      -0.13305939733982086, 
      -0.06532741338014603, 
      0.21282310783863068, 
      0.01066595409065485
    ], 
    [
      -0.004087409004569054, 
      0.16939333081245422, 
      0.08165336400270462, 
      -0.39091455936431885, 
      -0.06969559192657471, 
      -0.141107439994812, 
      0.3725884258747101, 
      -0.21094441413879395, 
      -0.3726595342159271, 
      -0.7266404032707214, 
      0.27272742986679077, 
      0.2743026316165924, 
      -0.2313074916601181, 
      -0.2282731682062149, 
      -0.4867223799228668, 
      0.17819829285144806, 
      0.21641775965690613, 
      0.11932376772165298, 
      -0.12066510319709778, 
      -0.40019166469573975, 
      0.35056498646736145, 
      0.07865592837333679, 
      -0.1675877571105957, 
      0.1519751250743866, 
      0.08300139009952545
    ], 
    [
      -0.10896126925945282, 
      0.19139409065246582, 
      0.036054570227861404, 
      -0.17031563818454742, 
      -0.16137875616550446, 
      -0.3293949067592621, 
      0.3611464500427246, 
      0.04450473189353943, 
      -0.598655641078949, 
      -0.5089669227600098, 
      0.36269670724868774, 
      0.3590396046638489, 
      -0.15299198031425476, 
      -0.0694219246506691, 
      -0.35743147134780884, 
      0.043630897998809814, 
      0.24108019471168518, 
      0.18714676797389984, 
      -0.25219032168388367, 
      -0.2495613396167755, 
      0.16678331792354584, 
      -0.0020207019988447428, 
      -0.10163416713476181, 
      0.17130424082279205, 
      -0.007733216043561697
    ], 
    [
      0.16698352992534637, 
      -0.08513936400413513, 
      0.19430077075958252, 
      0.06259306520223618, 
      -0.3705008924007416, 
      -0.6365719437599182, 
      0.3644205629825592, 
      0.18842189013957977, 
      -0.6979777216911316, 
      -0.4684613347053528, 
      0.5258755683898926, 
      0.1594199687242508, 
      -0.2738990783691406, 
      0.11805067211389542, 
      -0.13657957315444946, 
      0.14886559545993805, 
      0.29196447134017944, 
      0.06516028195619583, 
      -0.3879445791244507, 
      0.06303088366985321, 
      -0.12048529088497162, 
      0.24407774209976196, 
      0.08764395862817764, 
      0.12485212832689285, 
      0.1446235626935959
    ], 
    [
      0.21161645650863647, 
      0.10036405175924301, 
      -0.2072664201259613, 
      -0.08205870538949966, 
      -0.14397908747196198, 
      -0.45618966221809387, 
      0.17057864367961884, 
      -0.18364684283733368, 
      -0.4546498656272888, 
      -0.385404497385025, 
      0.7035952806472778, 
      -0.22882471978664398, 
      -0.23340831696987152, 
      -0.2105846256017685, 
      0.01779032312333584, 
      -0.007565831299871206, 
      0.2549218535423279, 
      0.20061030983924866, 
      -0.42010653018951416, 
      0.005924503318965435, 
      -0.3318242132663727, 
      0.0967908427119255, 
      0.29521068930625916, 
      0.044574540108442307, 
      0.1674191951751709
    ], 
    [
      0.05726972967386246, 
      -0.07795614004135132, 
      -0.031025243923068047, 
      -0.2801181375980377, 
      -0.03904978185892105, 
      0.05933228135108948, 
      0.14068256318569183, 
      -0.3215954899787903, 
      -0.32814860343933105, 
      -0.2816210985183716, 
      0.6709775924682617, 
      -0.1423037201166153, 
      -0.06581741571426392, 
      -0.3291217088699341, 
      -0.3296898901462555, 
      -0.03941814601421356, 
      0.19388669729232788, 
      0.3051706552505493, 
      -0.6730284690856934, 
      -0.0704326182603836, 
      -0.29115939140319824, 
      0.05652913451194763, 
      -0.1109992042183876, 
      0.1581956148147583, 
      -0.12554405629634857
    ], 
    [
      -0.11195749789476395, 
      -0.29318082332611084, 
      -0.1331169158220291, 
      -0.4331004321575165, 
      -0.33085423707962036, 
      0.020167548209428787, 
      0.1348414123058319, 
      -0.2650124430656433, 
      -0.20722375810146332, 
      -0.16735206544399261, 
      0.7469081282615662, 
      -0.3573724627494812, 
      -0.3646828532218933, 
      -0.3199407160282135, 
      -0.39588508009910583, 
      0.11459600925445557, 
      0.08222804963588715, 
      0.11493004858493805, 
      -0.8042547702789307, 
      -0.07443640381097794, 
      -0.47572773694992065, 
      0.11495114862918854, 
      -0.1375398486852646, 
      0.19002850353717804, 
      -0.09984765201807022
    ], 
    [
      -0.0347142331302166, 
      -0.07253576815128326, 
      -0.005305799189954996, 
      -0.19742688536643982, 
      -0.06714963912963867, 
      -0.058981746435165405, 
      -0.06371703743934631, 
      -0.1795763373374939, 
      -0.24192927777767181, 
      -0.06282856315374374, 
      0.19775892794132233, 
      -0.2978469133377075, 
      -0.2562004327774048, 
      -0.20729970932006836, 
      -0.28153449296951294, 
      0.2137850821018219, 
      0.3060603439807892, 
      0.3510356545448303, 
      -1.1016324758529663, 
      -0.34978756308555603, 
      -0.4295223653316498, 
      0.0338018573820591, 
      -0.16469943523406982, 
      0.08867338299751282, 
      -0.20091590285301208
    ], 
    [
      0.021725352853536606, 
      0.126241073012352, 
      0.02339731529355049, 
      -0.16585303843021393, 
      -0.14691077172756195, 
      0.015475042164325714, 
      0.28897228837013245, 
      -0.3257172405719757, 
      -0.2226468026638031, 
      -0.45306962728500366, 
      0.04897299036383629, 
      -0.00989080872386694, 
      -0.08318959921598434, 
      -0.10730647295713425, 
      -0.4368365406990051, 
      0.04840276017785072, 
      0.25767233967781067, 
      0.6159578561782837, 
      -1.2149443626403809, 
      -0.3646090030670166, 
      -0.46480733156204224, 
      -0.0078059229999780655, 
      0.01241201814264059, 
      0.16608156263828278, 
      -0.18072597682476044
    ], 
    [
      0.18411098420619965, 
      -0.09938821941614151, 
      -0.40943872928619385, 
      0.026230616495013237, 
      -0.34362635016441345, 
      -0.18315263092517853, 
      0.3633384108543396, 
      -0.10546426475048065, 
      -0.3827764689922333, 
      -0.34249046444892883, 
      -0.11141227185726166, 
      0.11960241943597794, 
      0.12136319279670715, 
      8.538903784938157e-06, 
      -0.23679085075855255, 
      -0.007413923274725676, 
      0.46998506784439087, 
      0.5304093956947327, 
      -0.9800927639007568, 
      -0.212118461728096, 
      -0.29999467730522156, 
      -0.1940409243106842, 
      0.08145415782928467, 
      0.17959558963775635, 
      0.20741039514541626
    ], 
    [
      0.16777409613132477, 
      -0.35958215594291687, 
      -0.21346713602542877, 
      -0.05812951549887657, 
      -0.47117894887924194, 
      -0.3653981685638428, 
      0.02347829006612301, 
      0.05394674092531204, 
      -0.6758118271827698, 
      -0.16354113817214966, 
      -0.012000173330307007, 
      0.007060678210109472, 
      0.08186910301446915, 
      0.2326892763376236, 
      0.3065703809261322, 
      0.05807613581418991, 
      0.2947050631046295, 
      0.2514776885509491, 
      -0.6846805214881897, 
      -0.01177916582673788, 
      -0.2474128007888794, 
      -0.10721958428621292, 
      -0.0979570746421814, 
      -0.07898081839084625, 
      0.06740702688694
    ], 
    [
      0.018940167501568794, 
      -0.15373511612415314, 
      0.021762168034911156, 
      -0.04900122061371803, 
      -0.2633163332939148, 
      -0.07181835174560547, 
      0.09566965699195862, 
